{"learner":{"attributes":{"best_iteration":"203","best_score":"0.31647934928965954","scikit_learn":"{\"_estimator_type\": \"classifier\"}"},"feature_names":[],"feature_types":[],"gradient_booster":{"model":{"cats":{"enc":[],"feature_segments":[],"sorted_idx":[]},"gbtree_model_param":{"num_parallel_tree":"1","num_trees":"234"},"iteration_indptr":[0,1,2,3,4,5,6,7,8,9,10,11,12,13,14,15,16,17,18,19,20,21,22,23,24,25,26,27,28,29,30,31,32,33,34,35,36,37,38,39,40,41,42,43,44,45,46,47,48,49,50,51,52,53,54,55,56,57,58,59,60,61,62,63,64,65,66,67,68,69,70,71,72,73,74,75,76,77,78,79,80,81,82,83,84,85,86,87,88,89,90,91,92,93,94,95,96,97,98,99,100,101,102,103,104,105,106,107,108,109,110,111,112,113,114,115,116,117,118,119,120,121,122,123,124,125,126,127,128,129,130,131,132,133,134,135,136,137,138,139,140,141,142,143,144,145,146,147,148,149,150,151,152,153,154,155,156,157,158,159,160,161,162,163,164,165,166,167,168,169,170,171,172,173,174,175,176,177,178,179,180,181,182,183,184,185,186,187,188,189,190,191,192,193,194,195,196,197,198,199,200,201,202,203,204,205,206,207,208,209,210,211,212,213,214,215,216,217,218,219,220,221,222,223,224,225,226,227,228,229,230,231,232,233,234],"tree_info":[0,0,0,0,0,0,0,0,0,0,0,0,0,0,0,0,0,0,0,0,0,0,0,0,0,0,0,0,0,0,0,0,0,0,0,0,0,0,0,0,0,0,0,0,0,0,0,0,0,0,0,0,0,0,0,0,0,0,0,0,0,0,0,0,0,0,0,0,0,0,0,0,0,0,0,0,0,0,0,0,0,0,0,0,0,0,0,0,0,0,0,0,0,0,0,0,0,0,0,0,0,0,0,0,0,0,0,0,0,0,0,0,0,0,0,0,0,0,0,0,0,0,0,0,0,0,0,0,0,0,0,0,0,0,0,0,0,0,0,0,0,0,0,0,0,0,0,0,0,0,0,0,0,0,0,0,0,0,0,0,0,0,0,0,0,0,0,0,0,0,0,0,0,0,0,0,0,0,0,0,0,0,0,0,0,0,0,0,0,0,0,0,0,0,0,0,0,0,0,0,0,0,0,0,0,0,0,0,0,0,0,0,0,0,0,0,0,0,0,0,0,0,0,0,0,0,0,0,0,0,0,0,0,0],"trees":[{"base_weights":[1.5115779E-3,5.129744E-1,-5.882307E-1,8.497585E-1,6.616589E-2,-3.9709717E-1,-9.723097E-1,1.0579442E0,6.1495703E-1,-4.676476E-1,2.500261E-1,5.162598E-2,-4.7925422E-1,-7.8141487E-1,-1.2176617E0,1.1690449E0,7.387467E-1,-8.006793E-2,7.096972E-1,-6.382721E-1,1.2575997E-1,4.9178308E-1,-4.2796788E-1,1.2107411E-1,-7.267265E-1,-5.0117666E-1,4.8549253E-1,-4.6394983E-1,-1.006013E0,-8.4179616E-1,-1.2789185E0,1.3932881E0,1.042009E0,3.497328E-1,8.179863E-1,2.6067373E-1,-1.8067998E-1,8.3708924E-1,-1.9528955E-2,-3.7029988E-1,-8.630956E-1,-7.2658196E-2,8.354445E-1,8.4908646E-1,2.2615702E-1,-8.936167E-2,-7.050544E-1,4.7337243E-1,-2.8538078E-3,-3.9725175E-1,-1.1943007E0,-4.495125E-1,-7.688043E-1,2.5653923E-1,9.196622E-2,-3.1280237E-1,-1.0036348E0,-9.6025044E-1,-1.361667E0,2.5651336E-2,-9.744894E-1,-1.3368249E0,-1.0352747E0,6.697407E-2,9.025909E-2,5.5159826E-2,2.6343284E-2,3.325088E-2,2.3445624E-3,7.5335465E-2,3.8758036E-2,5.9167915E-3,6.738687E-2,-1.623646E-2,4.0539675E-3,5.0802317E-2,3.0943697E-2,2.431977E-2,-6.1678137E-3,-5.2942105E-2,-1.1411312E-2,-4.9047522E-2,-2.7112344E-2,-1.9193565E-2,1.652955E-2,1.4728017E-2,4.9552385E-2,3.3569593E-2,6.3368574E-2,-1.3807128E-2,1.973094E-2,1.4390488E-2,-2.5934592E-2,-4.10163E-2,-1.8868476E-2,1.8168868E-2,6.4966254E-2,-1.0083529E-2,1.0240252E-2,-3.2824703E-2,1.2041456E-2,-7.166723E-2,2.5980959E-2,-5.03936E-2,-2.1300655E-2,-3.5935257E-2,-5.865953E-2,4.2785246E-2,2.9786124E-3,-3.9577305E-2,-8.351738E-3,-5.484844E-2,1.9345846E-2,-4.892605E-2,2.3729827E-2,-5.3189296E-2,-7.344382E-2,-2.3441529E-2,4.0677E-2,-6.36365E-2,-2.8900713E-2,-6.298085E-2,-7.647053E-2,4.8253637E-2,-5.3405274E-2],"categories":[],"categories_nodes":[],"categories_segments":[],"categories_sizes":[],"default_left":[0,0,0,0,0,0,0,0,0,0,0,0,0,0,0,0,0,0,0,0,0,0,0,0,0,0,0,0,0,0,0,0,0,0,0,0,0,0,0,0,0,0,0,0,0,0,0,0,0,0,0,0,0,0,0,0,0,0,0,0,0,0,0,0,0,0,0,0,0,0,0,0,0,0,0,0,0,0,0,0,0,0,0,0,0,0,0,0,0,0,0,0,0,0,0,0,0,0,0,0,0,0,0,0,0,0,0,0,0,0,0,0,0,0,0,0,0,0,0,0,0,0,0,0,0],"id":0,"left_children":[1,3,5,7,9,11,13,15,17,19,21,23,25,27,29,31,33,35,37,39,41,43,45,47,49,51,53,55,57,59,61,63,65,67,69,71,73,75,77,79,81,83,85,87,89,91,93,95,97,99,101,103,105,107,-1,109,111,113,115,117,119,121,123,-1,-1,-1,-1,-1,-1,-1,-1,-1,-1,-1,-1,-1,-1,-1,-1,-1,-1,-1,-1,-1,-1,-1,-1,-1,-1,-1,-1,-1,-1,-1,-1,-1,-1,-1,-1,-1,-1,-1,-1,-1,-1,-1,-1,-1,-1,-1,-1,-1,-1,-1,-1,-1,-1,-1,-1,-1,-1,-1,-1,-1,-1],"loss_changes":[7.4170767E3,1.9815012E3,8.3788745E2,3.6623193E2,5.5572485E2,2.8127112E2,1.7655078E2,1.4003076E2,2.3265479E2,1.4699911E2,6.9054724E2,6.3875175E1,1.3660938E2,1.5175049E2,3.6890625E1,8.2319336E1,3.1351685E1,1.4588864E1,2.8882874E2,6.7448944E1,4.5851223E1,2.9441113E2,1.03762985E2,4.7435642E1,1.4275791E1,8.670972E1,4.384918E1,7.194426E1,1.8812012E1,2.7230606E1,1.8465088E1,2.0833008E1,5.873242E1,1.6729599E1,2.3817932E1,1.4692115E1,1.2436213E1,1.02536255E2,2.4348448E1,5.0113594E1,2.2451355E1,3.2073383E1,5.56551E0,9.73324E1,1.5096272E2,8.10908E1,2.256488E1,2.504176E1,3.3223274E1,9.859769E0,1.6971077E1,6.880481E1,1.9601318E1,1.4504176E1,0E0,4.826367E1,2.5617355E1,2.9654175E1,2.6523743E0,1.2931061E1,2.3249512E1,1.4842529E1,1.930832E1,0E0,0E0,0E0,0E0,0E0,0E0,0E0,0E0,0E0,0E0,0E0,0E0,0E0,0E0,0E0,0E0,0E0,0E0,0E0,0E0,0E0,0E0,0E0,0E0,0E0,0E0,0E0,0E0,0E0,0E0,0E0,0E0,0E0,0E0,0E0,0E0,0E0,0E0,0E0,0E0,0E0,0E0,0E0,0E0,0E0,0E0,0E0,0E0,0E0,0E0,0E0,0E0,0E0,0E0,0E0,0E0,0E0,0E0,0E0,0E0,0E0,0E0],"parents":[2147483647,0,0,1,1,2,2,3,3,4,4,5,5,6,6,7,7,8,8,9,9,10,10,11,11,12,12,13,13,14,14,15,15,16,16,17,17,18,18,19,19,20,20,21,21,22,22,23,23,24,24,25,25,26,26,27,27,28,28,29,29,30,30,31,31,32,32,33,33,34,34,35,35,36,36,37,37,38,38,39,39,40,40,41,41,42,42,43,43,44,44,45,45,46,46,47,47,48,48,49,49,50,50,51,51,52,52,53,53,55,55,56,56,57,57,58,58,59,59,60,60,61,61,62,62],"right_children":[2,4,6,8,10,12,14,16,18,20,22,24,26,28,30,32,34,36,38,40,42,44,46,48,50,52,54,56,58,60,62,64,66,68,70,72,74,76,78,80,82,84,86,88,90,92,94,96,98,100,102,104,106,108,-1,110,112,114,116,118,120,122,124,-1,-1,-1,-1,-1,-1,-1,-1,-1,-1,-1,-1,-1,-1,-1,-1,-1,-1,-1,-1,-1,-1,-1,-1,-1,-1,-1,-1,-1,-1,-1,-1,-1,-1,-1,-1,-1,-1,-1,-1,-1,-1,-1,-1,-1,-1,-1,-1,-1,-1,-1,-1,-1,-1,-1,-1,-1,-1,-1,-1,-1,-1],"split_conditions":[3.381E-3,1.0788E0,1E0,1E0,-8.2E-3,7.051E-3,1.9879E0,6E0,-4.6E-3,1.0309E-2,7.7E-3,1.07E-2,2.0907E-2,7.21E-3,2.454E-1,4.189E-1,-5E-3,3.548E-1,4.5E-3,1E0,-1.54E-2,1E0,1E0,4.823E-3,2.5979E0,6E0,1.09702E-1,7.2E-3,2.49E-2,5.332E-3,8.379E-3,1.1124E0,6.4E-3,5.577E-1,1.009E0,1.0809E0,2.495E0,5.475E-1,3.077E-1,-2.68E-2,7.407E-3,1.4553E-2,1.1252E-2,1.4055E0,-4E-3,1.53E-2,2.393E0,2.0123E0,4.363E-3,1.9564E0,5.61E-3,-3.99E-2,1E1,2.406E0,9.196622E-2,-8E-3,2.1868E0,2.0907E-2,2E0,1.4E1,1.9885E0,1.64E-2,1.968E0,6.697407E-2,9.025909E-2,5.5159826E-2,2.6343284E-2,3.325088E-2,2.3445624E-3,7.5335465E-2,3.8758036E-2,5.9167915E-3,6.738687E-2,-1.623646E-2,4.0539675E-3,5.0802317E-2,3.0943697E-2,2.431977E-2,-6.1678137E-3,-5.2942105E-2,-1.1411312E-2,-4.9047522E-2,-2.7112344E-2,-1.9193565E-2,1.652955E-2,1.4728017E-2,4.9552385E-2,3.3569593E-2,6.3368574E-2,-1.3807128E-2,1.973094E-2,1.4390488E-2,-2.5934592E-2,-4.10163E-2,-1.8868476E-2,1.8168868E-2,6.4966254E-2,-1.0083529E-2,1.0240252E-2,-3.2824703E-2,1.2041456E-2,-7.166723E-2,2.5980959E-2,-5.03936E-2,-2.1300655E-2,-3.5935257E-2,-5.865953E-2,4.2785246E-2,2.9786124E-3,-3.9577305E-2,-8.351738E-3,-5.484844E-2,1.9345846E-2,-4.892605E-2,2.3729827E-2,-5.3189296E-2,-7.344382E-2,-2.3441529E-2,4.0677E-2,-6.36365E-2,-2.8900713E-2,-6.298085E-2,-7.647053E-2,4.8253637E-2,-5.3405274E-2],"split_indices":[0,6,5,5,7,0,14,3,7,10,7,7,10,0,8,8,7,8,7,5,7,5,5,0,6,3,9,7,7,0,10,13,7,8,17,13,17,8,8,7,10,10,9,13,7,7,17,13,10,14,10,7,3,17,0,7,13,10,16,15,13,7,6,0,0,0,0,0,0,0,0,0,0,0,0,0,0,0,0,0,0,0,0,0,0,0,0,0,0,0,0,0,0,0,0,0,0,0,0,0,0,0,0,0,0,0,0,0,0,0,0,0,0,0,0,0,0,0,0,0,0,0,0,0,0],"split_type":[0,0,0,0,0,0,0,0,0,0,0,0,0,0,0,0,0,0,0,0,0,0,0,0,0,0,0,0,0,0,0,0,0,0,0,0,0,0,0,0,0,0,0,0,0,0,0,0,0,0,0,0,0,0,0,0,0,0,0,0,0,0,0,0,0,0,0,0,0,0,0,0,0,0,0,0,0,0,0,0,0,0,0,0,0,0,0,0,0,0,0,0,0,0,0,0,0,0,0,0,0,0,0,0,0,0,0,0,0,0,0,0,0,0,0,0,0,0,0,0,0,0,0,0,0],"sum_hessian":[2.4587906E4,1.3168032E4,1.1419873E4,7.507838E3,5.660195E3,7.626772E3,3.7931016E3,3.9773801E3,3.5304575E3,1.4495458E3,4.210649E3,1.18016E3,6.446612E3,2.1358818E3,1.6572196E3,2.9482341E3,1.029146E3,4.234053E2,3.1070522E3,1.1259037E3,3.23642E2,3.1041892E3,1.1064598E3,1.0843796E3,9.5780334E1,6.303948E3,1.4266374E2,8.8643475E2,1.249447E3,2.3453159E2,1.4226881E3,1.0623038E3,1.8859302E3,1.752855E2,8.5386053E2,9.593125E1,3.2747406E2,2.6449775E3,4.620748E2,5.1507086E2,6.108329E2,2.5351842E2,7.01236E1,1.3225736E3,1.7816156E3,4.9870908E2,6.077508E2,2.8166333E2,8.027164E2,5.7398277E1,3.8382057E1,5.2864746E3,1.0174736E3,1.23107735E2,1.955601E1,6.938702E2,1.9256462E2,1.110534E3,1.38913E2,3.1123423E1,2.0340816E2,1.1455337E3,2.7715433E2,9.435415E2,1.1876236E2,1.684512E3,2.0141824E2,8.5130745E1,9.0154755E1,4.784809E1,8.0601245E2,8.588632E1,1.00449295E1,2.1132236E2,1.16151695E2,1.4509487E3,1.1940287E3,7.788978E1,3.8418503E2,8.687676E1,4.281941E2,4.4500403E2,1.6582884E2,1.4325525E2,1.1026316E2,1.6456318E1,5.366728E1,9.3023706E2,3.9233655E2,4.471433E2,1.3344723E3,2.6553247E2,2.3317659E2,4.4825644E2,1.5949435E2,2.4993906E2,3.1724262E1,4.1034967E2,3.923667E2,4.090648E1,1.64918E1,3.387894E1,4.5031176E0,2.1164046E2,5.074834E3,9.0800574E2,1.0946783E2,2.9504406E1,9.3603325E1,1.6076253E2,5.331076E2,1.8071786E2,1.1846755E1,1.0969537E3,1.3580316E1,3.9901646E1,9.9011345E1,1.9293058E1,1.1830364E1,1.14680046E2,8.872811E1,8.2346545E2,3.220683E2,3.9676492E0,2.7318668E2],"tree_param":{"num_deleted":"0","num_feature":"18","num_nodes":"125","size_leaf_vector":"1"}},{"base_weights":[1.6289814E-3,4.9149865E-1,-5.680441E-1,7.376103E-1,-5.783863E-2,-3.8667238E-1,-9.3296385E-1,9.521628E-1,5.0900394E-1,-4.830173E-1,1.6421185E-1,-9.207939E-2,-5.00645E-1,-7.546257E-1,-1.1735632E0,1.0715946E0,6.601733E-1,6.251205E-1,-1.2970422E-1,-6.6192883E-1,-1.2912104E-2,4.8922652E-1,-4.3622434E-1,-4.0818065E-2,-7.9422295E-1,-5.276016E-1,3.367134E-1,-5.3471965E-1,-1.0295353E0,-1.2032117E0,-4.4767886E-1,1.3060921E0,9.459949E-1,1.8112712E-1,7.775581E-1,5.250725E-2,8.332951E-1,9.67573E-2,-2.7078766E-1,-1.0698993E0,-5.443888E-1,-2.3715442E-1,3.72655E-1,8.7220794E-1,2.1657628E-1,-6.0722746E-2,-7.1955377E-1,-3.7386072E-1,1.0117188E-1,-1.2347362E0,-3.294603E-1,-6.30419E-1,-3.8449475E-1,1.510121E-1,1.6319991E0,-4.109076E-1,-9.088075E-1,-9.355812E-1,-1.2777683E0,-6.574358E-1,-1.2418177E0,-6.257857E-1,3.0044407E-1,6.200263E-2,7.9903156E-2,4.8775215E-2,4.4456124E-3,1.3735934E-2,-3.9144784E-2,4.6832614E-2,2.0736633E-2,-1.3315243E-2,1.1972996E-2,4.904436E-2,3.2534596E-2,3.49004E-3,7.682782E-2,-1.65941E-2,1.2054311E-2,-6.6534005E-2,-4.1628093E-2,-9.719599E-3,-3.7996374E-2,-1.8533502E-2,4.117425E-2,-7.0124044E-4,2.8079662E-2,3.694446E-2,6.504552E-2,7.689168E-3,5.7487894E-2,8.0139665E-3,-4.7063455E-2,-4.1771255E-2,-1.5002324E-2,-2.2006178E-2,4.4055972E-2,1.4239601E-2,-9.321696E-3,-3.7020575E-2,-8.555692E-2,-2.2670766E-2,3.0454833E-2,-4.544674E-2,-2.7715897E-2,-6.0357094E-2,-1.651298E-2,1.7667046E-2,-2.249067E-2,3.365948E-2,8.94728E-2,-3.9483555E-2,-1.098705E-2,-6.883892E-2,-3.988567E-2,-4.8093762E-2,1.5848968E-2,-4.8125103E-2,-7.004935E-2,-2.1417921E-2,-6.2331785E-2,-6.837498E-2,-5.660841E-2,-6.474959E-3,-4.0555585E-2,5.3939957E-2,-3.0611495E-2],"categories":[],"categories_nodes":[],"categories_segments":[],"categories_sizes":[],"default_left":[0,0,0,0,0,0,0,0,0,0,0,0,0,0,0,0,0,0,0,0,0,0,0,0,0,0,0,0,0,0,0,0,0,0,0,0,0,0,0,0,0,0,0,0,0,0,0,0,0,0,0,0,0,0,0,0,0,0,0,0,0,0,0,0,0,0,0,0,0,0,0,0,0,0,0,0,0,0,0,0,0,0,0,0,0,0,0,0,0,0,0,0,0,0,0,0,0,0,0,0,0,0,0,0,0,0,0,0,0,0,0,0,0,0,0,0,0,0,0,0,0,0,0,0,0,0,0],"id":1,"left_children":[1,3,5,7,9,11,13,15,17,19,21,23,25,27,29,31,33,35,37,39,41,43,45,47,49,51,53,55,57,59,61,63,65,67,69,71,73,75,77,79,81,83,85,87,89,91,93,95,97,99,101,103,105,107,109,111,113,115,117,119,121,123,125,-1,-1,-1,-1,-1,-1,-1,-1,-1,-1,-1,-1,-1,-1,-1,-1,-1,-1,-1,-1,-1,-1,-1,-1,-1,-1,-1,-1,-1,-1,-1,-1,-1,-1,-1,-1,-1,-1,-1,-1,-1,-1,-1,-1,-1,-1,-1,-1,-1,-1,-1,-1,-1,-1,-1,-1,-1,-1,-1,-1,-1,-1,-1,-1],"loss_changes":[6.890824E3,1.7950378E3,7.5510596E2,4.4908008E2,3.8799652E2,2.5600488E2,1.6151611E2,1.6401172E2,3.2952405E2,1.1850983E2,5.2703424E2,7.652466E1,1.2433484E2,1.3104138E2,3.3968506E1,9.732251E1,7.710907E1,4.4788928E2,2.1894985E1,4.822043E1,3.3781E1,1.8265097E2,1.0078836E2,9.396336E1,2.9060112E1,7.805957E1,4.0951637E1,5.5679443E1,2.1141846E1,3.1591797E1,8.874295E0,2.0234985E1,5.5145752E1,2.4721367E1,6.3219177E1,5.9859364E1,7.347974E1,9.939327E0,1.3284033E1,1.2735382E1,5.9724792E1,3.5275505E1,1.0552443E1,4.044995E1,5.9750603E1,7.984849E1,2.5901428E1,4.973507E1,7.361151E1,1.5869827E1,8.623316E0,6.502954E1,9.897592E1,1.8580564E1,1.7798424E0,6.5864746E1,1.43134E1,2.361139E1,8.61441E0,1.3403572E1,1.8096191E1,4.6654034E0,9.982071E0,0E0,0E0,0E0,0E0,0E0,0E0,0E0,0E0,0E0,0E0,0E0,0E0,0E0,0E0,0E0,0E0,0E0,0E0,0E0,0E0,0E0,0E0,0E0,0E0,0E0,0E0,0E0,0E0,0E0,0E0,0E0,0E0,0E0,0E0,0E0,0E0,0E0,0E0,0E0,0E0,0E0,0E0,0E0,0E0,0E0,0E0,0E0,0E0,0E0,0E0,0E0,0E0,0E0,0E0,0E0,0E0,0E0,0E0,0E0,0E0,0E0,0E0,0E0,0E0],"parents":[2147483647,0,0,1,1,2,2,3,3,4,4,5,5,6,6,7,7,8,8,9,9,10,10,11,11,12,12,13,13,14,14,15,15,16,16,17,17,18,18,19,19,20,20,21,21,22,22,23,23,24,24,25,25,26,26,27,27,28,28,29,29,30,30,31,31,32,32,33,33,34,34,35,35,36,36,37,37,38,38,39,39,40,40,41,41,42,42,43,43,44,44,45,45,46,46,47,47,48,48,49,49,50,50,51,51,52,52,53,53,54,54,55,55,56,56,57,57,58,58,59,59,60,60,61,61,62,62],"right_children":[2,4,6,8,10,12,14,16,18,20,22,24,26,28,30,32,34,36,38,40,42,44,46,48,50,52,54,56,58,60,62,64,66,68,70,72,74,76,78,80,82,84,86,88,90,92,94,96,98,100,102,104,106,108,110,112,114,116,118,120,122,124,126,-1,-1,-1,-1,-1,-1,-1,-1,-1,-1,-1,-1,-1,-1,-1,-1,-1,-1,-1,-1,-1,-1,-1,-1,-1,-1,-1,-1,-1,-1,-1,-1,-1,-1,-1,-1,-1,-1,-1,-1,-1,-1,-1,-1,-1,-1,-1,-1,-1,-1,-1,-1,-1,-1,-1,-1,-1,-1,-1,-1,-1,-1,-1,-1],"split_conditions":[3.482E-3,1.2161E0,1E0,1E0,-6.5E-3,8.997E-3,2.014E0,6E0,4.5E-3,8.905E-3,7.3E-3,1.4E-2,1.9388E-2,8.941E-3,1.6268E-2,4.091E-1,-5.363E-3,-3E-3,8.275E-1,-1.87E-2,-1.99E-2,1E0,1E0,-6.13E-3,5.727E-3,7.746E-3,1.09702E-1,7.7E-3,1.6509E-2,3.703E-3,2.6872E-2,1.0636E0,1.22E-2,1.2E1,3.626E-3,-6.8E-3,5.475E-1,1.1658E0,1.2931E0,6.739E-3,1E0,2.2506E-2,1.0548E-2,1.7313E0,2.5467E0,2.78E-2,2.393E0,1.4913E-2,3.525E-3,2.04E-2,1.6893E-2,-9.679E-3,-4.3316E-2,1.9834E-2,2.2506E-2,-7.114E-3,4.138E-3,2.0907E-2,2E0,7.372E-1,-1.0817E-2,2.676E-1,-1.103E-1,6.200263E-2,7.9903156E-2,4.8775215E-2,4.4456124E-3,1.3735934E-2,-3.9144784E-2,4.6832614E-2,2.0736633E-2,-1.3315243E-2,1.1972996E-2,4.904436E-2,3.2534596E-2,3.49004E-3,7.682782E-2,-1.65941E-2,1.2054311E-2,-6.6534005E-2,-4.1628093E-2,-9.719599E-3,-3.7996374E-2,-1.8533502E-2,4.117425E-2,-7.0124044E-4,2.8079662E-2,3.694446E-2,6.504552E-2,7.689168E-3,5.7487894E-2,8.0139665E-3,-4.7063455E-2,-4.1771255E-2,-1.5002324E-2,-2.2006178E-2,4.4055972E-2,1.4239601E-2,-9.321696E-3,-3.7020575E-2,-8.555692E-2,-2.2670766E-2,3.0454833E-2,-4.544674E-2,-2.7715897E-2,-6.0357094E-2,-1.651298E-2,1.7667046E-2,-2.249067E-2,3.365948E-2,8.94728E-2,-3.9483555E-2,-1.098705E-2,-6.883892E-2,-3.988567E-2,-4.8093762E-2,1.5848968E-2,-4.8125103E-2,-7.004935E-2,-2.1417921E-2,-6.2331785E-2,-6.837498E-2,-5.660841E-2,-6.474959E-3,-4.0555585E-2,5.3939957E-2,-3.0611495E-2],"split_indices":[0,14,5,5,7,0,14,3,7,10,7,7,10,0,10,8,12,7,14,7,7,5,5,12,10,10,9,7,12,9,0,13,7,3,12,7,8,13,13,10,5,10,9,13,13,7,17,10,12,7,9,12,12,12,10,12,9,10,16,8,12,8,7,0,0,0,0,0,0,0,0,0,0,0,0,0,0,0,0,0,0,0,0,0,0,0,0,0,0,0,0,0,0,0,0,0,0,0,0,0,0,0,0,0,0,0,0,0,0,0,0,0,0,0,0,0,0,0,0,0,0,0,0,0,0,0,0],"split_type":[0,0,0,0,0,0,0,0,0,0,0,0,0,0,0,0,0,0,0,0,0,0,0,0,0,0,0,0,0,0,0,0,0,0,0,0,0,0,0,0,0,0,0,0,0,0,0,0,0,0,0,0,0,0,0,0,0,0,0,0,0,0,0,0,0,0,0,0,0,0,0,0,0,0,0,0,0,0,0,0,0,0,0,0,0,0,0,0,0,0,0,0,0,0,0,0,0,0,0,0,0,0,0,0,0,0,0,0,0,0,0,0,0,0,0,0,0,0,0,0,0,0,0,0,0,0,0],"sum_hessian":[2.4690516E4,1.3275256E4,1.1415261E4,9.167785E3,4.10747E3,7.62689E3,3.78837E3,4.727402E3,4.440384E3,1.4089365E3,2.6985337E3,2.1283303E3,5.49856E3,2.1783071E3,1.610063E3,3.352943E3,1.3744586E3,3.7574587E3,6.8292487E2,1.0200917E3,3.888449E2,1.7510476E3,9.4748615E2,1.9846384E3,1.4369174E2,5.3275425E3,1.7101729E2,1.2120619E3,9.662452E2,1.5461172E3,6.3945755E1,1.1659298E3,2.1870132E3,2.711782E2,1.1032805E3,1.00228E3,2.7551787E3,2.6199167E2,4.209332E2,2.2615967E2,7.93932E2,2.4626418E2,1.4258073E2,7.271217E2,1.02392596E3,4.0813916E2,5.39347E2,5.9294214E2,1.3916963E3,7.2809395E1,7.0882355E1,3.0977847E3,2.229758E3,1.506175E2,2.0399797E1,9.124376E2,2.996243E2,7.0469574E2,2.6154944E2,1.0350347E2,1.4426138E3,5.1889526E1,1.2056229E1,9.5541785E2,2.1051196E2,2.1139744E3,7.303895E1,2.4792711E2,2.3251087E1,7.65682E2,3.3759848E2,3.701317E2,6.321483E2,1.5209369E3,1.2342418E3,2.582741E2,3.717579E0,3.765387E2,4.43945E1,1.0536215E2,1.20797516E2,3.0348758E2,4.9044443E2,2.1939151E2,2.6872671E1,4.6930195E1,9.5650536E1,5.568944E2,1.702273E2,9.6056256E2,6.336339E1,3.2681787E2,8.132129E1,4.216531E2,1.1769385E2,5.638974E2,2.9044754E1,8.4961957E2,5.420768E2,3.7089085E1,3.5720306E1,6.3163776E1,7.7185793E0,6.621568E2,2.435628E3,1.364816E2,2.0932764E3,1.13106926E2,3.7510563E1,3.7112422E0,1.6688555E1,3.048253E2,6.0761237E2,5.512474E1,2.4449956E2,6.9051227E2,1.4183489E1,7.6202194E1,1.8534724E2,7.589334E1,2.7610132E1,6.663973E2,7.762165E2,1.471702E1,3.717251E1,6.4678254E0,5.5884027E0],"tree_param":{"num_deleted":"0","num_feature":"18","num_nodes":"127","size_leaf_vector":"1"}},{"base_weights":[2.4991162E-4,4.6606272E-1,-5.353151E-1,7.7068406E-1,4.986784E-2,-3.6159268E-1,-8.8105816E-1,9.622984E-1,5.5659705E-1,-3.7429142E-1,2.4670371E-1,-8.249885E-2,-4.6920452E-1,-6.7455715E-1,-1.0483547E0,1.1020252E0,7.664111E-1,6.4919454E-1,-3.9917342E-2,-7.614834E-2,-6.5029514E-1,5.4836804E-1,-3.1142136E-1,-3.2986265E-2,-7.6643884E-1,-5.595628E-1,-2.6835364E-1,-2.4976473E-1,-8.3053726E-1,-9.6574223E-1,-1.2656372E0,9.805404E-1,1.3154482E0,8.2748824E-1,3.408372E-1,-6.460265E-2,7.6709336E-1,-8.142782E-2,1.0220567E0,6.543773E-2,-5.904177E-1,-4.415242E-1,-8.5908496E-1,8.4077615E-1,3.3273947E-1,6.217572E-3,-5.641473E-1,-3.5412621E-1,5.8316167E-2,-4.0165117E-1,-1.0513486E0,-8.098677E-1,-4.9529836E-1,-1.6947074E-1,-7.4561054E-1,-1.5214454E-1,-7.641631E-1,-6.7941296E-1,-9.360409E-1,-1.1686608E0,-6.9243723E-1,-1.5542841E0,-1.1814164E0,5.4980375E-2,3.8282022E-2,7.527219E-2,5.9183817E-2,3.0395059E-2,4.600623E-2,7.7187814E-2,1.2421499E-2,-1.1653644E-2,6.40246E-3,3.595684E-2,6.096683E-2,4.053661E-3,-1.4303555E-2,6.602221E-2,2.2874337E-2,-5.239663E-3,2.501905E-2,-1.8996578E-2,-5.3298187E-2,-3.0015394E-2,-5.4132133E-3,-5.0943967E-2,-2.8805498E-2,3.7066918E-2,6.579481E-2,-7.3758923E-3,2.2787256E-2,1.6213696E-2,-2.3036271E-2,-2.1549761E-2,-4.649303E-2,-1.3873435E-2,-5.744307E-2,-2.8781104E-4,3.554556E-2,-3.3916373E-2,1.5855404E-2,-7.0582554E-2,-3.0317396E-2,-3.5985183E-2,-5.122265E-2,-3.5860587E-2,-2.0374333E-2,-1.970824E-2,3.9900816E-3,-3.150403E-2,-6.2261112E-2,-3.610321E-2,-1.2762125E-3,-4.2005546E-2,3.171764E-2,-3.4903087E-2,2.0315863E-2,-5.2777886E-2,-4.129784E-2,-6.09125E-2,-2.8875774E-2,-2.2872137E-2,-4.6164557E-2,-5.3963304E-2,-8.2157694E-2,-5.14314E-2,-6.7316175E-2],"categories":[],"categories_nodes":[],"categories_segments":[],"categories_sizes":[],"default_left":[0,0,0,0,0,0,0,0,0,0,0,0,0,0,0,0,0,0,0,0,0,0,0,0,0,0,0,0,0,0,0,0,0,0,0,0,0,0,0,0,0,0,0,0,0,0,0,0,0,0,0,0,0,0,0,0,0,0,0,0,0,0,0,0,0,0,0,0,0,0,0,0,0,0,0,0,0,0,0,0,0,0,0,0,0,0,0,0,0,0,0,0,0,0,0,0,0,0,0,0,0,0,0,0,0,0,0,0,0,0,0,0,0,0,0,0,0,0,0,0,0,0,0,0,0,0,0],"id":2,"left_children":[1,3,5,7,9,11,13,15,17,19,21,23,25,27,29,31,33,35,37,39,41,43,45,47,49,51,53,55,57,59,61,63,65,67,69,71,73,75,77,79,81,83,85,87,89,91,93,95,97,99,101,103,105,107,109,111,113,115,117,119,121,123,125,-1,-1,-1,-1,-1,-1,-1,-1,-1,-1,-1,-1,-1,-1,-1,-1,-1,-1,-1,-1,-1,-1,-1,-1,-1,-1,-1,-1,-1,-1,-1,-1,-1,-1,-1,-1,-1,-1,-1,-1,-1,-1,-1,-1,-1,-1,-1,-1,-1,-1,-1,-1,-1,-1,-1,-1,-1,-1,-1,-1,-1,-1,-1,-1],"loss_changes":[6.142555E3,1.6694333E3,6.874883E2,3.112173E2,4.6481595E2,2.2891406E2,1.3141528E2,1.0874243E2,1.9858752E2,1.4508476E2,6.404553E2,7.179898E1,9.96322E1,1.13449524E2,3.64917E1,5.910669E1,4.3095764E1,2.6192957E2,2.1311707E1,6.1952477E1,3.941916E1,1.5527856E2,1.0720792E2,5.8140366E1,1.4311012E1,6.0497192E1,8.04656E1,2.302863E1,1.9216187E1,8.417871E1,1.1957092E1,3.7207764E1,1.910376E1,2.903595E1,2.2993681E1,1.437978E1,5.68407E1,1.5557426E1,2.2804756E0,4.947178E1,1.7834145E1,2.42229E1,1.9904144E1,4.828827E1,8.4157E1,8.80917E1,3.5669235E1,2.6281086E1,6.460211E1,1.3087992E1,1.1706032E1,1.4048004E1,5.847986E1,7.946848E1,1.5937683E1,2.8074917E1,8.349274E0,1.0843185E1,8.625427E0,2.4906128E1,3.508545E1,3.3267517E0,9.775757E0,0E0,0E0,0E0,0E0,0E0,0E0,0E0,0E0,0E0,0E0,0E0,0E0,0E0,0E0,0E0,0E0,0E0,0E0,0E0,0E0,0E0,0E0,0E0,0E0,0E0,0E0,0E0,0E0,0E0,0E0,0E0,0E0,0E0,0E0,0E0,0E0,0E0,0E0,0E0,0E0,0E0,0E0,0E0,0E0,0E0,0E0,0E0,0E0,0E0,0E0,0E0,0E0,0E0,0E0,0E0,0E0,0E0,0E0,0E0,0E0,0E0,0E0,0E0,0E0],"parents":[2147483647,0,0,1,1,2,2,3,3,4,4,5,5,6,6,7,7,8,8,9,9,10,10,11,11,12,12,13,13,14,14,15,15,16,16,17,17,18,18,19,19,20,20,21,21,22,22,23,23,24,24,25,25,26,26,27,27,28,28,29,29,30,30,31,31,32,32,33,33,34,34,35,35,36,36,37,37,38,38,39,39,40,40,41,41,42,42,43,43,44,44,45,45,46,46,47,47,48,48,49,49,50,50,51,51,52,52,53,53,54,54,55,55,56,56,57,57,58,58,59,59,60,60,61,61,62,62],"right_children":[2,4,6,8,10,12,14,16,18,20,22,24,26,28,30,32,34,36,38,40,42,44,46,48,50,52,54,56,58,60,62,64,66,68,70,72,74,76,78,80,82,84,86,88,90,92,94,96,98,100,102,104,106,108,110,112,114,116,118,120,122,124,126,-1,-1,-1,-1,-1,-1,-1,-1,-1,-1,-1,-1,-1,-1,-1,-1,-1,-1,-1,-1,-1,-1,-1,-1,-1,-1,-1,-1,-1,-1,-1,-1,-1,-1,-1,-1,-1,-1,-1,-1,-1,-1,-1,-1,-1,-1,-1,-1,-1,-1,-1,-1,-1,-1,-1,-1,-1,-1,-1,-1,-1,-1,-1,-1],"split_conditions":[3.381E-3,1.092E0,1E0,1E0,-6.2E-3,8.997E-3,2.0267E0,5E0,4.5E-3,1E0,6.1E-3,1.4E-2,1.0427E-2,5.823E-3,1.49E-2,6.95E-1,9E0,-4.6E-3,1.2615E0,2.5154E0,1.8026E0,1E0,1E0,-8.2E-3,1.4874E0,-9.4E-3,2.78E-2,7.2E-3,8.941E-3,-1.21E-2,6.027E-3,6.629E-1,7.982E-1,-2.4E-3,1.045E0,-6.8E-3,1.0809E0,7.9E-3,1.0014E0,1.0888E-2,2.6651E0,2.301E0,9.059E-3,1.7313E0,-3.7E-3,1.53E-2,2.1759E0,3.7221E0,2.0123E0,8.845E-3,1.37E0,5E0,5.231E-3,-1.69E-2,1.9E1,-7.3E-3,6E0,2.2876E0,1.1267E0,4.0218E-2,4.9E-3,4.55E-3,1.4E1,5.4980375E-2,3.8282022E-2,7.527219E-2,5.9183817E-2,3.0395059E-2,4.600623E-2,7.7187814E-2,1.2421499E-2,-1.1653644E-2,6.40246E-3,3.595684E-2,6.096683E-2,4.053661E-3,-1.4303555E-2,6.602221E-2,2.2874337E-2,-5.239663E-3,2.501905E-2,-1.8996578E-2,-5.3298187E-2,-3.0015394E-2,-5.4132133E-3,-5.0943967E-2,-2.8805498E-2,3.7066918E-2,6.579481E-2,-7.3758923E-3,2.2787256E-2,1.6213696E-2,-2.3036271E-2,-2.1549761E-2,-4.649303E-2,-1.3873435E-2,-5.744307E-2,-2.8781104E-4,3.554556E-2,-3.3916373E-2,1.5855404E-2,-7.0582554E-2,-3.0317396E-2,-3.5985183E-2,-5.122265E-2,-3.5860587E-2,-2.0374333E-2,-1.970824E-2,3.9900816E-3,-3.150403E-2,-6.2261112E-2,-3.610321E-2,-1.2762125E-3,-4.2005546E-2,3.171764E-2,-3.4903087E-2,2.0315863E-2,-5.2777886E-2,-4.129784E-2,-6.09125E-2,-2.8875774E-2,-2.2872137E-2,-4.6164557E-2,-5.3963304E-2,-8.2157694E-2,-5.14314E-2,-6.7316175E-2],"split_indices":[0,6,5,5,7,0,6,3,7,5,7,7,9,0,7,13,3,7,13,6,6,5,5,7,13,7,7,7,0,7,9,6,6,7,17,7,13,7,6,9,13,17,9,13,7,7,6,6,13,9,17,3,9,7,15,7,3,13,13,9,7,9,15,0,0,0,0,0,0,0,0,0,0,0,0,0,0,0,0,0,0,0,0,0,0,0,0,0,0,0,0,0,0,0,0,0,0,0,0,0,0,0,0,0,0,0,0,0,0,0,0,0,0,0,0,0,0,0,0,0,0,0,0,0,0,0,0],"split_type":[0,0,0,0,0,0,0,0,0,0,0,0,0,0,0,0,0,0,0,0,0,0,0,0,0,0,0,0,0,0,0,0,0,0,0,0,0,0,0,0,0,0,0,0,0,0,0,0,0,0,0,0,0,0,0,0,0,0,0,0,0,0,0,0,0,0,0,0,0,0,0,0,0,0,0,0,0,0,0,0,0,0,0,0,0,0,0,0,0,0,0,0,0,0,0,0,0,0,0,0,0,0,0,0,0,0,0,0,0,0,0,0,0,0,0,0,0,0,0,0,0,0,0,0,0,0,0],"sum_hessian":[2.4620148E4,1.3167717E4,1.1452433E4,7.602329E3,5.5653877E3,7.6240034E3,3.828429E3,4.0096282E3,3.592701E3,1.7636056E3,3.801782E3,2.1223457E3,5.5016577E3,1.7159688E3,2.1124602E3,2.337295E3,1.6723331E3,3.1100105E3,4.826903E2,8.485876E2,9.15018E2,2.4680225E3,1.3337595E3,1.980188E3,1.4215764E2,3.7929922E3,1.7086655E3,4.617346E2,1.2542341E3,1.534816E3,5.7764417E2,1.4933262E3,8.439688E2,1.4614156E3,2.1091759E2,4.408101E2,2.6692004E3,4.6551184E2,1.7178455E1,6.659264E2,1.8266121E2,4.5932666E2,4.5569135E2,1.0460879E3,1.4219347E3,5.912393E2,7.425202E2,4.3795972E2,1.5422283E3,6.35506E1,7.860705E1,7.721952E2,3.020797E3,1.4167032E3,2.9196225E2,3.8933795E2,7.239662E1,5.190829E2,7.351513E2,8.7874194E2,6.560741E2,1.2626347E2,4.5138068E2,9.579719E2,5.3535425E2,3.4104626E2,5.0292255E2,4.3616412E2,1.0252515E3,1.3848987E1,1.9706859E2,2.3532889E2,2.0548119E2,2.415833E3,2.5336758E2,2.5953674E2,2.059751E2,1.0246816E1,6.93164E0,4.789866E2,1.869398E2,1.2801045E2,5.4650753E1,3.1035486E2,1.489718E2,2.8934558E2,1.6634573E2,8.673343E2,1.787536E2,2.8972684E2,1.1322079E3,3.5199738E2,2.3924191E2,5.461318E2,1.9638841E2,4.0077707E2,3.7182663E1,1.4051111E3,1.3711717E2,4.6028103E1,1.7522493E1,4.211276E1,3.649429E1,5.47125E2,2.2507016E2,8.54086E2,2.1667112E3,7.449897E2,6.7171356E2,2.3912778E2,5.2834476E1,6.9777245E1,3.195607E2,6.91141E1,3.2825236E0,5.1075912E2,8.32374E0,3.4792102E2,3.872303E2,8.0959735E2,6.914461E1,3.2681357E2,3.2926056E2,2.2148273E1,1.04115204E2,2.3837112E2,2.1300954E2],"tree_param":{"num_deleted":"0","num_feature":"18","num_nodes":"127","size_leaf_vector":"1"}},{"base_weights":[-3.644963E-3,4.3984258E-1,-5.132881E-1,7.236084E-1,4.7724307E-2,-3.5010752E-1,-8.372172E-1,9.128615E-1,5.1299113E-1,-4.1947538E-1,2.109102E-1,-8.547209E-2,-4.5033708E-1,-6.6991657E-1,-1.0494862E0,1.0554732E0,7.569537E-1,6.0257125E-1,-5.3248726E-2,-1.5080018E-1,-6.8398803E-1,4.0308002E-1,-4.5950943E-1,-4.7898266E-2,-1.0546105E0,-5.295194E-1,-2.7379528E-1,-3.1322223E-1,-8.0577654E-1,-9.5914197E-1,-1.234679E0,1.141297E0,8.1146395E-1,3.714506E-1,8.2968116E-1,-8.738103E-2,7.172605E-1,7.797718E-2,-2.4274282E-1,1.1465513E-2,-6.005721E-1,-4.3378E-1,-8.2005507E-1,7.1474254E-1,1.7635848E-1,-1.0519271E0,-3.0381042E-1,6.1226286E-2,-3.639692E-1,7.879296E-2,-1.2113292E0,-8.915353E-1,-4.311027E-1,-1.5237348E-1,-7.3728937E-1,-8.281666E-1,-2.0005006E-1,-6.842745E-1,-9.6981394E-1,-1.1756753E0,-5.1563805E-1,-1.298614E0,-6.291335E-1,6.344056E-2,5.209149E-2,4.2652942E-2,-7.109824E-3,8.326533E-3,3.9146934E-2,4.559757E-2,1.9046742E-2,1.6069392E-2,-8.237827E-3,4.378501E-2,2.7145222E-2,-2.0392796E-2,9.890453E-3,-2.7583642E-2,9.96792E-4,-1.028436E-2,2.2326782E-2,-3.4354888E-2,1.714085E-2,-3.1054983E-2,-6.10973E-3,-4.9724467E-2,-2.8769795E-2,2.0132953E-2,4.2985406E-2,-1.2878703E-2,1.54493395E-2,-3.014158E-2,-6.0031097E-2,-9.787575E-3,-4.195389E-2,-1.158139E-2,1.5958374E-2,-1.4012121E-2,-4.4116255E-2,5.4060996E-2,-4.2654585E-2,-6.72707E-2,-1.305372E-2,-6.4939044E-2,-4.1887384E-2,-3.353554E-2,-1.6595894E-2,-2.2219276E-2,9.990675E-3,-4.5386385E-2,-2.9019369E-2,-6.2595084E-2,-2.8233543E-2,4.401348E-3,-3.163502E-2,-2.7475303E-2,-4.590313E-2,-4.5671638E-2,-6.2659524E-2,-6.1496403E-2,-2.7777111E-2,-3.5974246E-2,8.652554E-3,-5.709846E-2,-7.385546E-2,2.0798355E-2,-4.652765E-2],"categories":[],"categories_nodes":[],"categories_segments":[],"categories_sizes":[],"default_left":[0,0,0,0,0,0,0,0,0,0,0,0,0,0,0,0,0,0,0,0,0,0,0,0,0,0,0,0,0,0,0,0,0,0,0,0,0,0,0,0,0,0,0,0,0,0,0,0,0,0,0,0,0,0,0,0,0,0,0,0,0,0,0,0,0,0,0,0,0,0,0,0,0,0,0,0,0,0,0,0,0,0,0,0,0,0,0,0,0,0,0,0,0,0,0,0,0,0,0,0,0,0,0,0,0,0,0,0,0,0,0,0,0,0,0,0,0,0,0,0,0,0,0,0,0,0,0],"id":3,"left_children":[1,3,5,7,9,11,13,15,17,19,21,23,25,27,29,31,33,35,37,39,41,43,45,47,49,51,53,55,57,59,61,63,65,67,69,71,73,75,77,79,81,83,85,87,89,91,93,95,97,99,101,103,105,107,109,111,113,115,117,119,121,123,125,-1,-1,-1,-1,-1,-1,-1,-1,-1,-1,-1,-1,-1,-1,-1,-1,-1,-1,-1,-1,-1,-1,-1,-1,-1,-1,-1,-1,-1,-1,-1,-1,-1,-1,-1,-1,-1,-1,-1,-1,-1,-1,-1,-1,-1,-1,-1,-1,-1,-1,-1,-1,-1,-1,-1,-1,-1,-1,-1,-1,-1,-1,-1,-1],"loss_changes":[5.546059E3,1.4597908E3,6.031023E2,3.027898E2,4.2013196E2,2.0134814E2,1.3492188E2,8.8126465E1,1.8294775E2,1.0118921E2,5.263742E2,7.5863335E1,7.676819E1,1.0341333E2,2.6761597E1,4.2651123E1,5.3358276E1,2.4644482E2,1.2299232E1,5.1820183E1,2.3974487E1,2.2413336E2,8.350574E1,6.941354E1,1.4023537E1,1.3490369E2,9.591608E1,3.4261997E1,3.0063171E1,1.0834631E2,2.0210999E1,1.8024536E1,2.1915863E1,2.5620293E1,5.9069946E1,1.409479E1,7.312427E1,1.7050037E1,1.6484499E1,4.9427402E1,1.5631454E1,1.4757427E1,1.9069153E1,5.999414E1,1.05950134E2,1.1710556E1,4.1513382E1,1.13050964E2,2.2052238E1,1.0575506E1,8.211655E0,1.6469238E1,7.075073E1,1.3944336E2,8.793945E0,1.0977921E1,6.0837986E1,2.752182E1,9.132263E0,2.4794312E1,5.2783043E1,1.18828125E1,1.758604E1,0E0,0E0,0E0,0E0,0E0,0E0,0E0,0E0,0E0,0E0,0E0,0E0,0E0,0E0,0E0,0E0,0E0,0E0,0E0,0E0,0E0,0E0,0E0,0E0,0E0,0E0,0E0,0E0,0E0,0E0,0E0,0E0,0E0,0E0,0E0,0E0,0E0,0E0,0E0,0E0,0E0,0E0,0E0,0E0,0E0,0E0,0E0,0E0,0E0,0E0,0E0,0E0,0E0,0E0,0E0,0E0,0E0,0E0,0E0,0E0,0E0,0E0,0E0,0E0],"parents":[2147483647,0,0,1,1,2,2,3,3,4,4,5,5,6,6,7,7,8,8,9,9,10,10,11,11,12,12,13,13,14,14,15,15,16,16,17,17,18,18,19,19,20,20,21,21,22,22,23,23,24,24,25,25,26,26,27,27,28,28,29,29,30,30,31,31,32,32,33,33,34,34,35,35,36,36,37,37,38,38,39,39,40,40,41,41,42,42,43,43,44,44,45,45,46,46,47,47,48,48,49,49,50,50,51,51,52,52,53,53,54,54,55,55,56,56,57,57,58,58,59,59,60,60,61,61,62,62],"right_children":[2,4,6,8,10,12,14,16,18,20,22,24,26,28,30,32,34,36,38,40,42,44,46,48,50,52,54,56,58,60,62,64,66,68,70,72,74,76,78,80,82,84,86,88,90,92,94,96,98,100,102,104,106,108,110,112,114,116,118,120,122,124,126,-1,-1,-1,-1,-1,-1,-1,-1,-1,-1,-1,-1,-1,-1,-1,-1,-1,-1,-1,-1,-1,-1,-1,-1,-1,-1,-1,-1,-1,-1,-1,-1,-1,-1,-1,-1,-1,-1,-1,-1,-1,-1,-1,-1,-1,-1,-1,-1,-1,-1,-1,-1,-1,-1,-1,-1,-1,-1,-1,-1,-1,-1,-1,-1],"split_conditions":[3.381E-3,1.092E0,1E0,1E0,-8.2E-3,8.941E-3,1.9879E0,5.556E-1,4.5E-3,1E0,9.4E-3,2.8989E0,1.0427E-2,5.888E-3,1.0798E-2,6E0,-4.6E-3,-4.6E-3,8.1E-3,2.4893E0,1.6291E0,1E0,1.502E0,4.822E-3,5.741E-3,-1.0104E-2,2.4027E-2,-7.114E-3,1.0926E-2,-1.0104E-2,1.83E-2,3.048E-1,1.1029E-2,8.917E-3,5.8E-3,6.31E-1,5.25E-1,3.642E-3,7.192E-3,1.0888E-2,-1.0104E-2,2.442E0,8.713E-3,-3.232E-3,-4E-3,1.7693E0,3E-2,-4.184E-3,2.5979E0,6.471E-1,8.214E-1,-2.1154E-2,5.231E-3,-1.842E-2,3.428E0,4.761E-3,4.2E-3,6.542E-1,2.49E-2,4.0218E-2,5.677E-3,1.4E1,1E1,6.344056E-2,5.209149E-2,4.2652942E-2,-7.109824E-3,8.326533E-3,3.9146934E-2,4.559757E-2,1.9046742E-2,1.6069392E-2,-8.237827E-3,4.378501E-2,2.7145222E-2,-2.0392796E-2,9.890453E-3,-2.7583642E-2,9.96792E-4,-1.028436E-2,2.2326782E-2,-3.4354888E-2,1.714085E-2,-3.1054983E-2,-6.10973E-3,-4.9724467E-2,-2.8769795E-2,2.0132953E-2,4.2985406E-2,-1.2878703E-2,1.54493395E-2,-3.014158E-2,-6.0031097E-2,-9.787575E-3,-4.195389E-2,-1.158139E-2,1.5958374E-2,-1.4012121E-2,-4.4116255E-2,5.4060996E-2,-4.2654585E-2,-6.72707E-2,-1.305372E-2,-6.4939044E-2,-4.1887384E-2,-3.353554E-2,-1.6595894E-2,-2.2219276E-2,9.990675E-3,-4.5386385E-2,-2.9019369E-2,-6.2595084E-2,-2.8233543E-2,4.401348E-3,-3.163502E-2,-2.7475303E-2,-4.590313E-2,-4.5671638E-2,-6.2659524E-2,-6.1496403E-2,-2.7777111E-2,-3.5974246E-2,8.652554E-3,-5.709846E-2,-7.385546E-2,2.0798355E-2,-4.652765E-2],"split_indices":[0,6,5,5,7,0,14,8,7,5,7,14,9,0,12,3,7,7,7,6,6,5,17,12,9,12,12,12,0,12,9,8,12,9,7,14,8,9,9,9,12,17,9,12,7,6,7,12,6,8,8,12,9,12,17,9,7,8,7,9,9,15,15,0,0,0,0,0,0,0,0,0,0,0,0,0,0,0,0,0,0,0,0,0,0,0,0,0,0,0,0,0,0,0,0,0,0,0,0,0,0,0,0,0,0,0,0,0,0,0,0,0,0,0,0,0,0,0,0,0,0,0,0,0,0,0,0],"split_type":[0,0,0,0,0,0,0,0,0,0,0,0,0,0,0,0,0,0,0,0,0,0,0,0,0,0,0,0,0,0,0,0,0,0,0,0,0,0,0,0,0,0,0,0,0,0,0,0,0,0,0,0,0,0,0,0,0,0,0,0,0,0,0,0,0,0,0,0,0,0,0,0,0,0,0,0,0,0,0,0,0,0,0,0,0,0,0,0,0,0,0,0,0,0,0,0,0,0,0,0,0,0,0,0,0,0,0,0,0,0,0,0,0,0,0,0,0,0,0,0,0,0,0,0,0,0,0],"sum_hessian":[2.4535842E4,1.311939E4,1.1416452E4,7.610656E3,5.508734E3,7.593558E3,3.8228943E3,4.0066309E3,3.6040247E3,1.425463E3,4.0832708E3,2.0867573E3,5.506801E3,2.1404878E3,1.6824065E3,2.0891956E3,1.9174353E3,3.1118386E3,4.92186E2,7.081338E2,7.173293E2,3.1740154E3,9.092554E2,2.0099823E3,7.67751E1,3.799906E3,1.7068947E3,5.915197E2,1.548968E3,1.1352882E3,5.4711835E2,1.5425553E3,5.466403E2,3.0551068E2,1.6119247E3,4.4345416E2,2.6683845E3,2.9083893E2,2.0134709E2,5.209434E2,1.8719032E2,2.544164E2,4.6291287E2,1.335533E3,1.8384824E3,1.8790376E2,7.213516E2,1.4944934E3,5.1548895E2,9.309214E0,6.746589E1,8.102837E2,2.9896223E3,1.3537869E3,3.5310782E2,1.0528073E2,4.86239E2,8.93176E2,6.5579193E2,7.6158215E2,3.7370602E2,4.936842E2,5.3434147E1,6.7038214E2,8.7217316E2,5.2399603E2,2.264429E1,2.0504604E2,1.00464645E2,1.3611292E3,2.5079547E2,6.9873215E1,3.7358096E2,1.3955938E3,1.2727908E3,5.6902336E1,2.3393658E2,9.2196976E1,1.09150116E2,3.476976E2,1.7324585E2,1.7180995E2,1.5380375E1,1.58072E2,9.634438E1,2.6821243E2,1.9470044E2,4.2501773E2,9.1051526E2,4.2998004E2,1.4085023E3,4.816379E1,1.3973997E2,6.0147864E2,1.1987299E2,6.9974774E2,7.947456E2,4.4529654E2,7.0192406E1,4.459353E0,4.8498607E0,5.86667E1,8.79919E0,9.161652E1,7.186672E2,8.73258E2,2.1163643E3,7.4013446E2,6.1365234E2,1.666538E2,1.8645403E2,3.878264E1,6.649809E1,2.9222714E2,1.9401187E2,5.689691E2,3.2420694E2,5.5078326E2,1.05008675E2,6.992622E2,6.2320004E1,2.8843262E2,8.5273415E1,2.6717404E2,2.2651015E2,1.1801937E1,4.163221E1],"tree_param":{"num_deleted":"0","num_feature":"18","num_nodes":"127","size_leaf_vector":"1"}},{"base_weights":[-6.573489E-4,5.4876083E-1,-3.1125328E-1,6.804358E-1,2.6888326E-1,-1.1100711E-1,-5.8667195E-1,6.086022E-1,1.01848E0,1.5073878E-1,8.3231664E-1,-3.7372556E-1,-7.846781E-3,-3.5486215E-1,-8.5032475E-1,7.607899E-1,4.2506722E-1,1.2426637E0,8.184637E-1,-1.799635E-1,2.5605625E-1,7.077072E-1,1.5113951E0,-4.7253817E-1,8.4346466E-2,1.7848933E-1,-4.1371366E-1,-3.8981247E-1,7.5012416E-1,-7.647132E-1,-1.100303E0,1.0218902E0,6.815395E-1,4.8438516E-1,-2.262762E-1,1.4442353E0,9.754378E-1,6.2371737E-1,1.1974639E0,9.534789E-4,-3.569027E-1,4.011094E-1,-2.5324014E-1,1.1133754E0,5.3139937E-1,1.6343782E0,1.1177044E0,-5.002836E-1,7.5673133E-1,-5.343406E-1,2.4106982E-1,1.091111E-1,6.384421E-1,-2.4524593E-1,-6.5936995E-1,-3.1701875E-1,-9.7370595E-1,1.1115291E0,1.7624354E-1,-1.015828E0,-5.150153E-1,-1.2720312E0,-9.105724E-1,3.997512E-2,5.968997E-2,4.009747E-2,2.5103634E-2,4.6177935E-3,2.8208716E-2,-3.122217E-2,2.6459224E-3,7.339438E-2,2.9269753E-2,5.09227E-2,1.1738713E-2,3.7291255E-2,3.4067582E-3,5.4755934E-2,8.409864E-2,-5.1525277E-3,1.7894862E-2,-2.4081443E-2,3.851631E-3,-3.123427E-2,2.0896403E-2,-4.600228E-2,-8.766961E-3,5.8495034E-2,-7.1959025E-3,2.9239362E-2,-3.4735776E-2,8.576896E-2,4.872983E-2,7.144197E-2,2.0203857E-2,-1.0186561E-2,-2.8474396E-2,5.6027897E-2,-5.4178007E-2,7.6112136E-2,-3.687424E-2,5.329255E-3,4.3566547E-2,1.4326679E-2,-7.3925365E-4,4.7483407E-2,2.230112E-2,4.3306644E-3,-1.6942907E-2,-2.7723212E-2,-5.2467175E-2,-1.2389228E-2,-4.3988187E-2,-8.663157E-2,-4.2578265E-2,-3.4253296E-2,6.2223025E-2,2.4001066E-2,-1.7688064E-2,-5.335463E-2,1.0063957E-3,-1.5916344E-2,-3.957108E-2,-6.4710185E-2,-2.3022588E-2,-3.6765918E-2,-5.3867947E-2],"categories":[],"categories_nodes":[],"categories_segments":[],"categories_sizes":[],"default_left":[0,0,0,0,0,0,0,0,0,0,0,0,0,0,0,0,0,0,0,0,0,0,0,0,0,0,0,0,0,0,0,0,0,0,0,0,0,0,0,0,0,0,0,0,0,0,0,0,0,0,0,0,0,0,0,0,0,0,0,0,0,0,0,0,0,0,0,0,0,0,0,0,0,0,0,0,0,0,0,0,0,0,0,0,0,0,0,0,0,0,0,0,0,0,0,0,0,0,0,0,0,0,0,0,0,0,0,0,0,0,0,0,0,0,0,0,0,0,0,0,0,0,0,0,0,0,0],"id":4,"left_children":[1,3,5,7,9,11,13,15,17,19,21,23,25,27,29,31,33,35,37,39,41,43,45,47,49,51,53,55,57,59,61,63,65,67,69,71,73,75,77,79,81,83,85,87,89,91,93,95,97,99,101,103,105,107,109,111,113,115,117,119,121,123,125,-1,-1,-1,-1,-1,-1,-1,-1,-1,-1,-1,-1,-1,-1,-1,-1,-1,-1,-1,-1,-1,-1,-1,-1,-1,-1,-1,-1,-1,-1,-1,-1,-1,-1,-1,-1,-1,-1,-1,-1,-1,-1,-1,-1,-1,-1,-1,-1,-1,-1,-1,-1,-1,-1,-1,-1,-1,-1,-1,-1,-1,-1,-1,-1],"loss_changes":[4.1906514E3,3.2656665E2,8.651189E2,1.4565381E2,1.8879018E2,2.4619434E2,4.0320825E2,1.3855457E2,4.608972E1,8.185411E1,4.0326508E1,1.1601486E2,4.935749E2,1.3605215E2,6.507886E1,5.5393433E1,8.739111E1,2.503125E1,4.0462433E1,1.8207376E1,1.3176102E2,2.9109848E1,1.5414886E0,7.222293E1,4.4232487E1,1.4257654E2,8.473575E1,1.4446509E2,2.2087666E1,1.4382349E2,2.4214722E1,2.2961914E1,4.4611694E1,6.464166E1,2.1105608E1,4.6245728E0,6.526413E0,2.5152359E1,7.256653E0,1.0508631E1,1.5625259E1,2.417833E1,2.0272436E1,9.184265E0,1.9585182E1,9.976196E-1,3.9617329E0,4.211194E1,3.2572723E1,3.955378E1,3.06603E1,8.549075E1,3.451848E1,3.7955475E1,3.3400635E1,1.1783487E2,3.323761E1,1.6673233E1,7.1139045E0,6.1081787E1,6.257904E1,6.597168E0,1.0044922E1,0E0,0E0,0E0,0E0,0E0,0E0,0E0,0E0,0E0,0E0,0E0,0E0,0E0,0E0,0E0,0E0,0E0,0E0,0E0,0E0,0E0,0E0,0E0,0E0,0E0,0E0,0E0,0E0,0E0,0E0,0E0,0E0,0E0,0E0,0E0,0E0,0E0,0E0,0E0,0E0,0E0,0E0,0E0,0E0,0E0,0E0,0E0,0E0,0E0,0E0,0E0,0E0,0E0,0E0,0E0,0E0,0E0,0E0,0E0,0E0,0E0,0E0,0E0,0E0],"parents":[2147483647,0,0,1,1,2,2,3,3,4,4,5,5,6,6,7,7,8,8,9,9,10,10,11,11,12,12,13,13,14,14,15,15,16,16,17,17,18,18,19,19,20,20,21,21,22,22,23,23,24,24,25,25,26,26,27,27,28,28,29,29,30,30,31,31,32,32,33,33,34,34,35,35,36,36,37,37,38,38,39,39,40,40,41,41,42,42,43,43,44,44,45,45,46,46,47,47,48,48,49,49,50,50,51,51,52,52,53,53,54,54,55,55,56,56,57,57,58,58,59,59,60,60,61,61,62,62],"right_children":[2,4,6,8,10,12,14,16,18,20,22,24,26,28,30,32,34,36,38,40,42,44,46,48,50,52,54,56,58,60,62,64,66,68,70,72,74,76,78,80,82,84,86,88,90,92,94,96,98,100,102,104,106,108,110,112,114,116,118,120,122,124,126,-1,-1,-1,-1,-1,-1,-1,-1,-1,-1,-1,-1,-1,-1,-1,-1,-1,-1,-1,-1,-1,-1,-1,-1,-1,-1,-1,-1,-1,-1,-1,-1,-1,-1,-1,-1,-1,-1,-1,-1,-1,-1,-1,-1,-1,-1,-1,-1,-1,-1,-1,-1,-1,-1,-1,-1,-1,-1,-1,-1,-1,-1,-1,-1],"split_conditions":[1.0788E0,8.826E-1,1.7368E0,8.007E-1,1.0928E0,-6.2E-3,1E0,6.629E-1,7.74E-1,-4.1E-3,1.6128E0,1.0741E-2,7.7E-3,2.0907E-2,1.4E-2,3.115E-1,8.3E-3,5.005E-1,1.0458E0,7.5E1,6.4E-3,3.077E-1,1.6E1,2.4425E0,1E0,1.6853E0,1E0,2.8989E0,6.63E-1,-1.21E-2,5.961E-3,4.372E-1,1E0,-4.6E-3,2.686E0,9.01E1,7.3E-3,5.3E-3,1.4669E0,8.786E-1,1E0,3.774E-1,4.85E-3,9.18E1,9.02E-1,7.059E-1,2.3E-3,3.182E-1,6.63E-1,-4.47E-2,1.5792E0,7.39E1,7.25E1,3.644E-1,1.9E1,2.49E-2,-1.662E-1,1.8425E0,2.0365E0,1.8347E-2,4.9E-3,4.8713E0,1.4E1,3.997512E-2,5.968997E-2,4.009747E-2,2.5103634E-2,4.6177935E-3,2.8208716E-2,-3.122217E-2,2.6459224E-3,7.339438E-2,2.9269753E-2,5.09227E-2,1.1738713E-2,3.7291255E-2,3.4067582E-3,5.4755934E-2,8.409864E-2,-5.1525277E-3,1.7894862E-2,-2.4081443E-2,3.851631E-3,-3.123427E-2,2.0896403E-2,-4.600228E-2,-8.766961E-3,5.8495034E-2,-7.1959025E-3,2.9239362E-2,-3.4735776E-2,8.576896E-2,4.872983E-2,7.144197E-2,2.0203857E-2,-1.0186561E-2,-2.8474396E-2,5.6027897E-2,-5.4178007E-2,7.6112136E-2,-3.687424E-2,5.329255E-3,4.3566547E-2,1.4326679E-2,-7.3925365E-4,4.7483407E-2,2.230112E-2,4.3306644E-3,-1.6942907E-2,-2.7723212E-2,-5.2467175E-2,-1.2389228E-2,-4.3988187E-2,-8.663157E-2,-4.2578265E-2,-3.4253296E-2,6.2223025E-2,2.4001066E-2,-1.7688064E-2,-5.335463E-2,1.0063957E-3,-1.5916344E-2,-3.957108E-2,-6.4710185E-2,-2.3022588E-2,-3.6765918E-2,-5.3867947E-2],"split_indices":[6,6,14,13,13,7,5,6,6,7,13,10,7,10,7,8,7,8,13,2,7,8,15,13,16,13,5,14,8,7,10,13,5,7,17,2,7,7,13,13,11,1,10,2,1,8,7,8,8,7,13,2,2,8,15,7,7,14,13,10,7,13,15,0,0,0,0,0,0,0,0,0,0,0,0,0,0,0,0,0,0,0,0,0,0,0,0,0,0,0,0,0,0,0,0,0,0,0,0,0,0,0,0,0,0,0,0,0,0,0,0,0,0,0,0,0,0,0,0,0,0,0,0,0,0,0,0],"split_type":[0,0,0,0,0,0,0,0,0,0,0,0,0,0,0,0,0,0,0,0,0,0,0,0,0,0,0,0,0,0,0,0,0,0,0,0,0,0,0,0,0,0,0,0,0,0,0,0,0,0,0,0,0,0,0,0,0,0,0,0,0,0,0,0,0,0,0,0,0,0,0,0,0,0,0,0,0,0,0,0,0,0,0,0,0,0,0,0,0,0,0,0,0,0,0,0,0,0,0,0,0,0,0,0,0,0,0,0,0,0,0,0,0,0,0,0,0,0,0,0,0,0,0,0,0,0,0],"sum_hessian":[2.4555562E4,8.8679E3,1.5687662E4,6.029427E3,2.8384731E3,9.084467E3,6.6031953E3,4.975287E3,1.0541399E3,2.3476477E3,4.9082547E2,2.5603726E3,6.5240938E3,3.5152393E3,3.087956E3,2.7179048E3,2.2573823E3,4.9434793E2,5.5979193E2,5.666571E2,1.7809907E3,4.1657437E2,7.42511E1,2.1062183E3,4.5415433E2,4.4715093E3,2.052585E3,3.4081775E3,1.0706162E2,2.3035168E3,7.8443915E2,6.2979834E2,2.0881064E3,2.0693372E3,1.8804503E2,2.7906628E2,2.1528166E2,3.7170413E2,1.8808778E2,2.803915E2,2.862656E2,1.3865071E3,3.9448355E2,1.24417946E2,2.921564E2,5.3982384E1,2.0268719E1,2.0603882E3,4.582993E1,9.1176186E1,3.6297812E2,3.8867024E3,5.8480664E2,1.21901E3,8.3357495E2,3.0319058E3,3.7627194E2,6.5010025E1,4.2051598E1,1.1467706E3,1.1567462E3,4.084833E2,3.759558E2,2.7730243E2,3.524959E2,1.2472568E3,8.4084973E2,3.5052194E2,1.7188153E3,7.714623E1,1.10898796E2,2.707834E2,8.282906E0,2.0298277E2,1.22988825E1,3.0430136E2,6.7402756E1,1.5814806E2,2.9939726E1,2.1746042E2,6.2931103E1,2.2244788E2,6.3817715E1,2.1687124E1,1.36482E3,4.0000305E1,3.5448325E2,1.1920767E2,5.2102776E0,2.8054544E2,1.1610981E1,4.6519707E1,7.462679E0,1.3319283E1,6.949435E0,3.9086285E2,1.6695254E3,3.8636845E1,7.1930866E0,7.5685267E0,8.360766E1,3.0024072E2,6.27374E1,1.5979261E3,2.2887761E3,2.2172546E2,3.6308118E2,2.6798788E2,9.510221E2,6.5898224E2,1.7459274E2,2.701197E3,3.307087E2,5.0220535E1,3.260514E2,4.140776E0,6.0869247E1,2.6910532E1,1.5141065E1,1.0927616E3,5.4009144E1,6.772991E2,4.7944708E2,3.9692145E2,1.1561861E1,1.862541E2,1.8970172E2],"tree_param":{"num_deleted":"0","num_feature":"18","num_nodes":"127","size_leaf_vector":"1"}},{"base_weights":[3.919061E-3,5.205545E-1,-2.888063E-1,6.506672E-1,2.4349186E-1,-1.2113513E-1,-5.6889015E-1,8.6118954E-1,5.3767776E-1,1.5882155E-1,1.055504E0,-2.3966474E-2,-4.4977793E-1,-3.2794642E-1,-8.2910186E-1,7.625607E-1,1.172486E0,5.944209E-1,1.3131143E-1,-3.255355E-1,2.8055745E-1,1.0929818E0,-4.185645E-1,-3.7494445E-1,2.1641925E-1,-3.134338E-1,-6.8498576E-1,-3.661852E-1,8.2317126E-1,-1.6000111E-1,-8.62772E-1,9.837612E-1,5.855967E-1,1.3787059E0,9.63708E-1,7.262162E-1,4.2793757E-1,6.621103E-1,-3.1390183E-2,-6.4759487E-1,-1.3033941E-1,4.5513177E-1,-2.1415475E-1,1.2249957E0,6.660388E-1,-3.1138508E-2,-4.6937396E-3,-4.964865E-1,1.0794676E-2,3.77167E-1,-1.2790991E-1,-6.448781E-2,-4.313085E-1,-5.6808585E-1,-8.7119794E-1,-7.061694E-1,-2.2409423E-1,1.6692618E-1,1.2557007E0,1.5180746E-1,-6.699376E-1,-6.961008E-1,-9.677952E-1,4.06814E-2,5.8584686E-2,3.2949347E-2,8.5501745E-3,1.8519608E-2,6.9735944E-2,3.826667E-2,6.472581E-2,1.1203333E-2,4.022793E-2,4.917979E-2,1.7785551E-2,-3.4566734E-2,4.0229823E-2,1.2400827E-2,-8.427076E-3,1.024444E-2,-3.5402056E-2,-1.5567514E-2,1.1301277E-2,4.72594E-3,2.647239E-2,-6.1056193E-2,-8.525433E-3,6.875513E-2,3.637632E-2,4.2199448E-2,-2.5394184E-3,-3.2750584E-2,-1.7375259E-2,-7.923771E-3,1.9426258E-2,6.9741975E-3,2.8584918E-2,-1.7578509E-2,7.70164E-3,5.618446E-3,-2.2839075E-2,-4.1708283E-2,-1.7561888E-2,-3.5354655E-2,-7.179254E-3,-3.2801725E-2,-5.2521408E-2,-5.697168E-2,-2.7283851E-2,4.643671E-3,-3.0147824E-2,3.919011E-2,-2.9280422E-2,-4.653184E-3,7.147559E-2,-5.2084114E-2,1.4849936E-2,-4.9113374E-2,1.7277323E-2,-4.7839858E-2,-2.5604472E-2,-4.1591298E-2,-5.2753616E-2],"categories":[],"categories_nodes":[],"categories_segments":[],"categories_sizes":[],"default_left":[0,0,0,0,0,0,0,0,0,0,0,0,0,0,0,0,0,0,0,0,0,0,0,0,0,0,0,0,0,0,0,0,0,0,0,0,0,0,0,0,0,0,0,0,0,0,0,0,0,0,0,0,0,0,0,0,0,0,0,0,0,0,0,0,0,0,0,0,0,0,0,0,0,0,0,0,0,0,0,0,0,0,0,0,0,0,0,0,0,0,0,0,0,0,0,0,0,0,0,0,0,0,0,0,0,0,0,0,0,0,0,0,0,0,0,0,0,0,0,0,0,0,0],"id":5,"left_children":[1,3,5,7,9,11,13,15,17,19,21,23,25,27,29,31,33,35,37,39,41,43,45,47,49,51,53,55,57,59,61,63,65,67,69,71,73,75,77,79,81,83,85,87,89,-1,-1,91,93,95,97,99,101,103,105,107,109,111,113,115,117,119,121,-1,-1,-1,-1,-1,-1,-1,-1,-1,-1,-1,-1,-1,-1,-1,-1,-1,-1,-1,-1,-1,-1,-1,-1,-1,-1,-1,-1,-1,-1,-1,-1,-1,-1,-1,-1,-1,-1,-1,-1,-1,-1,-1,-1,-1,-1,-1,-1,-1,-1,-1,-1,-1,-1,-1,-1,-1,-1,-1,-1],"loss_changes":[3.6977422E3,3.1854712E2,7.328126E2,1.4251196E2,1.941254E2,3.117537E2,3.660094E2,6.336902E1,9.0197266E1,1.5115106E2,1.5259918E1,6.3603094E2,7.11322E1,1.3390076E2,6.3038208E1,6.1794983E1,2.0093628E1,7.50011E1,4.1674194E1,3.220575E1,1.7700438E2,1.3674683E1,3.51907E-1,1.4372635E2,2.4770845E2,4.1370483E1,1.7133423E1,1.4174487E2,2.7419495E1,2.1768465E1,4.596411E1,2.1492615E1,2.688858E1,3.3513794E0,1.5440079E1,7.512793E1,6.05867E1,2.2392677E1,1.4189989E1,1.0184639E1,2.085157E1,4.0471252E1,2.3155096E1,1.3542358E1,8.271141E0,0E0,0E0,5.4710938E1,4.7079983E1,1.4089563E2,8.989911E1,3.1676525E1,3.0494965E1,2.9599014E1,1.1197784E1,5.9406525E1,2.4924612E2,1.9100218E1,1.4033966E1,1.49731E1,1.6860441E1,4.9133484E1,1.8364014E1,0E0,0E0,0E0,0E0,0E0,0E0,0E0,0E0,0E0,0E0,0E0,0E0,0E0,0E0,0E0,0E0,0E0,0E0,0E0,0E0,0E0,0E0,0E0,0E0,0E0,0E0,0E0,0E0,0E0,0E0,0E0,0E0,0E0,0E0,0E0,0E0,0E0,0E0,0E0,0E0,0E0,0E0,0E0,0E0,0E0,0E0,0E0,0E0,0E0,0E0,0E0,0E0,0E0,0E0,0E0,0E0,0E0,0E0,0E0,0E0],"parents":[2147483647,0,0,1,1,2,2,3,3,4,4,5,5,6,6,7,7,8,8,9,9,10,10,11,11,12,12,13,13,14,14,15,15,16,16,17,17,18,18,19,19,20,20,21,21,22,22,23,23,24,24,25,25,26,26,27,27,28,28,29,29,30,30,31,31,32,32,33,33,34,34,35,35,36,36,37,37,38,38,39,39,40,40,41,41,42,42,43,43,44,44,47,47,48,48,49,49,50,50,51,51,52,52,53,53,54,54,55,55,56,56,57,57,58,58,59,59,60,60,61,61,62,62],"right_children":[2,4,6,8,10,12,14,16,18,20,22,24,26,28,30,32,34,36,38,40,42,44,46,48,50,52,54,56,58,60,62,64,66,68,70,72,74,76,78,80,82,84,86,88,90,-1,-1,92,94,96,98,100,102,104,106,108,110,112,114,116,118,120,122,-1,-1,-1,-1,-1,-1,-1,-1,-1,-1,-1,-1,-1,-1,-1,-1,-1,-1,-1,-1,-1,-1,-1,-1,-1,-1,-1,-1,-1,-1,-1,-1,-1,-1,-1,-1,-1,-1,-1,-1,-1,-1,-1,-1,-1,-1,-1,-1,-1,-1,-1,-1,-1,-1,-1,-1,-1,-1,-1,-1],"split_conditions":[1.0788E0,8.826E-1,2.0267E0,4.091E-1,1.2448E0,8.039E-3,1E0,7.77E-1,6.242E-3,-5.237E-3,9.02E-1,-5.736E-3,1E0,2.0907E-2,2.824E-3,6.012E-1,7.74E-1,1E0,5.865E-1,2.084E0,5.561E-3,6.471E-1,5.62E-3,1.0216E-2,3.719E-3,2E0,1.6509E-2,-1.7414E-2,5.3856E-2,3.626E-3,4.658E-1,4.372E-1,4.601E-3,3.894E-1,1.0458E0,-7.114E-3,2.462E-3,1.767E0,2E0,1.911E-1,-8.457E-3,-3.035E-3,3.582E-3,1.7E1,5.183E-3,-3.1138508E-2,-4.6937396E-3,-9.892E-3,-1.5304E-2,-1.836E-3,4.948E-3,1.7E1,5.586E-3,7.318E-3,1.5E1,6.774E-3,6.699E-3,7.308E-1,2.2506E-2,2E0,2.659E-3,-1.0578E-2,2.4448E0,4.06814E-2,5.8584686E-2,3.2949347E-2,8.5501745E-3,1.8519608E-2,6.9735944E-2,3.826667E-2,6.472581E-2,1.1203333E-2,4.022793E-2,4.917979E-2,1.7785551E-2,-3.4566734E-2,4.0229823E-2,1.2400827E-2,-8.427076E-3,1.024444E-2,-3.5402056E-2,-1.5567514E-2,1.1301277E-2,4.72594E-3,2.647239E-2,-6.1056193E-2,-8.525433E-3,6.875513E-2,3.637632E-2,4.2199448E-2,-2.5394184E-3,-3.2750584E-2,-1.7375259E-2,-7.923771E-3,1.9426258E-2,6.9741975E-3,2.8584918E-2,-1.7578509E-2,7.70164E-3,5.618446E-3,-2.2839075E-2,-4.1708283E-2,-1.7561888E-2,-3.5354655E-2,-7.179254E-3,-3.2801725E-2,-5.2521408E-2,-5.697168E-2,-2.7283851E-2,4.643671E-3,-3.0147824E-2,3.919011E-2,-2.9280422E-2,-4.653184E-3,7.147559E-2,-5.2084114E-2,1.4849936E-2,-4.9113374E-2,1.7277323E-2,-4.7839858E-2,-2.5604472E-2,-4.1591298E-2,-5.2753616E-2],"split_indices":[6,6,6,8,13,12,5,13,12,12,1,12,5,10,9,6,6,5,6,17,12,8,9,9,12,16,12,12,9,12,8,13,12,1,13,12,10,17,16,8,12,12,9,15,12,0,0,12,12,12,9,15,9,9,15,10,12,8,10,15,9,12,6,0,0,0,0,0,0,0,0,0,0,0,0,0,0,0,0,0,0,0,0,0,0,0,0,0,0,0,0,0,0,0,0,0,0,0,0,0,0,0,0,0,0,0,0,0,0,0,0,0,0,0,0,0,0,0,0,0,0,0,0],"split_type":[0,0,0,0,0,0,0,0,0,0,0,0,0,0,0,0,0,0,0,0,0,0,0,0,0,0,0,0,0,0,0,0,0,0,0,0,0,0,0,0,0,0,0,0,0,0,0,0,0,0,0,0,0,0,0,0,0,0,0,0,0,0,0,0,0,0,0,0,0,0,0,0,0,0,0,0,0,0,0,0,0,0,0,0,0,0,0,0,0,0,0,0,0,0,0,0,0,0,0,0,0,0,0,0,0,0,0,0,0,0,0,0,0,0,0,0,0,0,0,0,0,0,0],"sum_hessian":[2.44486E4,8.842283E3,1.5606315E4,6.0155723E3,2.826711E3,9.763326E3,5.8429893E3,2.0983706E3,3.9172017E3,2.5609895E3,2.6572128E2,7.536433E3,2.2268933E3,3.0351907E3,2.8077988E3,1.5963622E3,5.0200848E2,3.4366191E3,4.8058237E2,5.138825E2,2.047107E3,2.5945117E2,6.2701178E0,3.0634553E3,4.4729775E3,1.4114617E3,8.1543164E2,2.9383508E3,9.6839806E1,1.3494087E2,2.672858E3,7.0722516E2,8.89137E2,2.4949135E2,2.5251715E2,1.9159271E3,1.5206921E3,1.1217313E2,3.6840924E2,1.928553E2,3.210272E2,1.5133555E3,5.337515E2,1.965676E2,6.2883575E1,3.0965714E0,3.173546E0,2.3294456E3,7.340098E2,3.0495232E3,1.4234543E3,4.5433087E2,9.571308E2,5.0376617E2,3.1166547E2,8.646971E2,2.0736538E3,3.911326E1,5.7726547E1,8.40521E1,5.0888767E1,1.0365072E3,1.6363507E3,3.7426688E2,3.3295828E2,7.5470953E2,1.3442747E2,4.3750863E0,2.4511626E2,1.6011647E2,9.240068E1,2.5926404E2,1.6566631E3,1.7331674E2,1.3473754E3,1.02506485E1,1.0192248E2,1.20792175E2,2.4761707E2,1.2501437E1,1.8035387E2,2.1316153E2,1.0786566E2,2.592042E2,1.2541514E3,2.0957903E1,5.1279364E2,1.4949397E2,4.7073624E1,5.0347157E1,1.253642E1,1.1266036E3,1.2028419E3,5.070875E2,2.2692236E2,1.3735358E3,1.6759874E3,7.9383026E2,6.29624E2,3.134691E2,1.408618E2,1.5692627E2,8.002045E2,3.7881717E2,1.24949005E2,1.440062E2,1.6765927E2,2.3191048E2,6.3278656E2,1.1293207E3,9.44333E2,2.1544168E1,1.756909E1,6.577189E0,5.114936E1,8.371777E0,7.568033E1,3.9018982E1,1.1869783E1,4.2692386E2,6.095834E2,6.4428864E2,9.920621E2],"tree_param":{"num_deleted":"0","num_feature":"18","num_nodes":"123","size_leaf_vector":"1"}},{"base_weights":[3.1537376E-3,4.004324E-1,-4.5370343E-1,5.928771E-1,-3.742001E-2,-3.6984164E-1,-6.893394E-1,7.488728E-1,4.273055E-1,-3.778982E-1,1.4951193E-1,-3.0856022E-1,-6.803699E-1,-8.213833E-1,-5.6576353E-1,6.851858E-1,1.0736594E0,1.9956337E-2,5.132931E-1,-7.2722054E-1,-2.5911656E-1,4.951024E-1,-2.856652E-1,-5.270274E-1,-1.833887E-1,-8.742331E-1,-5.737933E-1,-1.1438209E0,-6.159993E-1,8.506578E-2,-7.914368E-1,8.14749E-1,3.5273412E-1,1.308576E0,8.8568467E-1,-1.8422934E-1,3.0938566E-1,6.385478E-1,1.4239393E-1,-7.9762053E-1,1.8355067E-1,-3.8635758E-1,7.760698E-2,6.482459E-2,6.287244E-1,-4.7157582E-2,-5.057414E-1,-6.3795185E-1,2.683136E-2,1.3499853E-2,-4.0458184E-1,1.7390162E-1,-9.207743E-1,-3.4946287E-1,-6.8982553E-1,-9.644669E-1,-1.3634164E0,-6.729198E-1,1.1240914E0,-1.2182939E-1,8.4950995E-1,-8.6865443E-1,-3.6067516E-1,3.607845E-2,4.8591852E-2,-2.452179E-3,2.2138989E-2,6.768643E-2,3.5129573E-2,3.7906133E-2,7.015049E-2,-1.9588562E-2,2.9865466E-3,-2.9216919E-3,2.4420895E-2,1.8559521E-2,3.497716E-2,2.3605866E-2,7.8144175E-4,-3.512998E-2,-6.742283E-2,-1.1180604E-2,8.597419E-2,-2.5143394E-2,-2.5612146E-3,-5.1250877E-3,3.834137E-2,-3.3831894E-3,5.0423075E-2,2.29385E-2,4.568365E-2,-1.9959541E-2,1.9143438E-2,-3.9733615E-2,-1.1126852E-2,-4.782103E-2,-2.9583057E-2,4.0488016E-2,-3.3329434E-3,-7.669737E-3,8.632851E-3,-2.4056686E-2,6.8184747E-3,8.124592E-2,-1.4679073E-2,-5.3382825E-2,-3.63737E-2,-8.109978E-3,-3.765794E-2,-2.239309E-2,-3.942652E-2,-5.943286E-2,-4.0228076E-2,-7.044384E-2,-1.1162573E-2,-2.822263E-2,-5.8181908E-2,7.576951E-2,1.8813107E-2,-2.6037885E-2,1.5459274E-2,-1.7181648E-2,5.615297E-2,-2.9107098E-2,-4.9079124E-2,6.340018E-3,-2.9313877E-2],"categories":[],"categories_nodes":[],"categories_segments":[],"categories_sizes":[],"default_left":[0,0,0,0,0,0,0,0,0,0,0,0,0,0,0,0,0,0,0,0,0,0,0,0,0,0,0,0,0,0,0,0,0,0,0,0,0,0,0,0,0,0,0,0,0,0,0,0,0,0,0,0,0,0,0,0,0,0,0,0,0,0,0,0,0,0,0,0,0,0,0,0,0,0,0,0,0,0,0,0,0,0,0,0,0,0,0,0,0,0,0,0,0,0,0,0,0,0,0,0,0,0,0,0,0,0,0,0,0,0,0,0,0,0,0,0,0,0,0,0,0,0,0,0,0,0,0],"id":6,"left_children":[1,3,5,7,9,11,13,15,17,19,21,23,25,27,29,31,33,35,37,39,41,43,45,47,49,51,53,55,57,59,61,63,65,67,69,71,73,75,77,79,81,83,85,87,89,91,93,95,97,99,101,103,105,107,109,111,113,115,117,119,121,123,125,-1,-1,-1,-1,-1,-1,-1,-1,-1,-1,-1,-1,-1,-1,-1,-1,-1,-1,-1,-1,-1,-1,-1,-1,-1,-1,-1,-1,-1,-1,-1,-1,-1,-1,-1,-1,-1,-1,-1,-1,-1,-1,-1,-1,-1,-1,-1,-1,-1,-1,-1,-1,-1,-1,-1,-1,-1,-1,-1,-1,-1,-1,-1,-1],"loss_changes":[4.4279087E3,1.0996262E3,2.238689E2,2.3370068E2,2.5370866E2,1.5899243E2,4.7972534E1,9.5601074E1,1.5406317E2,5.833792E1,3.8713858E2,1.9107819E2,2.7838074E1,9.425293E1,2.265279E2,1.6775415E2,3.2310608E1,4.5467712E1,1.686101E2,2.3146332E1,4.5310913E1,8.2375305E1,5.97296E1,1.5653314E2,1.9375572E2,2.3982056E1,2.289505E1,2.0414734E1,8.786496E1,6.306827E1,3.764032E1,4.0234497E1,3.974066E1,8.058228E0,2.6907013E1,2.288412E1,2.1034853E1,4.391455E1,3.8341133E1,1.6244217E1,1.7031574E1,2.9862564E1,3.6176186E1,4.2825832E1,5.2444122E1,8.313384E1,4.8186783E1,3.0560425E1,3.1290274E1,6.2556618E1,8.6854675E1,1.5158218E1,1.2285004E1,2.297155E1,1.3545837E1,9.97934E0,1.2377869E1,4.4558655E1,7.4898796E0,5.412462E1,2.8182781E1,3.0650879E1,1.946688E1,0E0,0E0,0E0,0E0,0E0,0E0,0E0,0E0,0E0,0E0,0E0,0E0,0E0,0E0,0E0,0E0,0E0,0E0,0E0,0E0,0E0,0E0,0E0,0E0,0E0,0E0,0E0,0E0,0E0,0E0,0E0,0E0,0E0,0E0,0E0,0E0,0E0,0E0,0E0,0E0,0E0,0E0,0E0,0E0,0E0,0E0,0E0,0E0,0E0,0E0,0E0,0E0,0E0,0E0,0E0,0E0,0E0,0E0,0E0,0E0,0E0,0E0,0E0,0E0],"parents":[2147483647,0,0,1,1,2,2,3,3,4,4,5,5,6,6,7,7,8,8,9,9,10,10,11,11,12,12,13,13,14,14,15,15,16,16,17,17,18,18,19,19,20,20,21,21,22,22,23,23,24,24,25,25,26,26,27,27,28,28,29,29,30,30,31,31,32,32,33,33,34,34,35,35,36,36,37,37,38,38,39,39,40,40,41,41,42,42,43,43,44,44,45,45,46,46,47,47,48,48,49,49,50,50,51,51,52,52,53,53,54,54,55,55,56,56,57,57,58,58,59,59,60,60,61,61,62,62],"right_children":[2,4,6,8,10,12,14,16,18,20,22,24,26,28,30,32,34,36,38,40,42,44,46,48,50,52,54,56,58,60,62,64,66,68,70,72,74,76,78,80,82,84,86,88,90,92,94,96,98,100,102,104,106,108,110,112,114,116,118,120,122,124,126,-1,-1,-1,-1,-1,-1,-1,-1,-1,-1,-1,-1,-1,-1,-1,-1,-1,-1,-1,-1,-1,-1,-1,-1,-1,-1,-1,-1,-1,-1,-1,-1,-1,-1,-1,-1,-1,-1,-1,-1,-1,-1,-1,-1,-1,-1,-1,-1,-1,-1,-1,-1,-1,-1,-1,-1,-1,-1,-1,-1,-1,-1,-1,-1],"split_conditions":[3.381E-3,1.2998E0,2.3771E0,5.475E-1,-6.5E-3,1.3466E-2,-1.0578E-2,1.0809E0,-4.6E-3,1.558E0,4.717E-3,-7.114E-3,2.074E0,1.0888E-2,3.525E-3,9.248E-1,1.0198E0,7.192E-3,4E-3,1.1252E-2,-9.892E-3,-3.8E-3,1.16E-2,1.2674E-2,4.601E-3,5E-3,1.7433E-2,2.4691E0,1E0,8.157E-3,3.163E0,6.53E-1,-5.116E-3,8E0,1.7002E0,-4.75E-3,-1.2494E-2,-2.4E-3,2.961E-3,2.894E0,-2.5047E-2,3.851E0,9.131E-3,2.0123E0,4.761E-3,5.441E-3,2.154E0,-2.048E-2,9.856E-3,-2.559E-3,7.992E-3,7.159E-3,7.297E-1,2.49E-2,2E0,-1.7414E-2,3.19E0,3.1789E0,8.82E1,-5.864E-3,1.4569E0,1.0798E-2,2E0,3.607845E-2,4.8591852E-2,-2.452179E-3,2.2138989E-2,6.768643E-2,3.5129573E-2,3.7906133E-2,7.015049E-2,-1.9588562E-2,2.9865466E-3,-2.9216919E-3,2.4420895E-2,1.8559521E-2,3.497716E-2,2.3605866E-2,7.8144175E-4,-3.512998E-2,-6.742283E-2,-1.1180604E-2,8.597419E-2,-2.5143394E-2,-2.5612146E-3,-5.1250877E-3,3.834137E-2,-3.3831894E-3,5.0423075E-2,2.29385E-2,4.568365E-2,-1.9959541E-2,1.9143438E-2,-3.9733615E-2,-1.1126852E-2,-4.782103E-2,-2.9583057E-2,4.0488016E-2,-3.3329434E-3,-7.669737E-3,8.632851E-3,-2.4056686E-2,6.8184747E-3,8.124592E-2,-1.4679073E-2,-5.3382825E-2,-3.63737E-2,-8.109978E-3,-3.765794E-2,-2.239309E-2,-3.942652E-2,-5.943286E-2,-4.0228076E-2,-7.044384E-2,-1.1162573E-2,-2.822263E-2,-5.8181908E-2,7.576951E-2,1.8813107E-2,-2.6037885E-2,1.5459274E-2,-1.7181648E-2,5.615297E-2,-2.9107098E-2,-4.9079124E-2,6.340018E-3,-2.9313877E-2],"split_indices":[0,6,6,8,7,12,12,13,7,17,12,12,17,9,12,6,6,9,7,9,12,7,7,9,12,7,0,14,11,9,17,13,12,3,13,12,12,7,12,6,12,17,9,13,9,9,17,12,0,12,9,0,1,7,16,12,17,13,2,12,13,12,16,0,0,0,0,0,0,0,0,0,0,0,0,0,0,0,0,0,0,0,0,0,0,0,0,0,0,0,0,0,0,0,0,0,0,0,0,0,0,0,0,0,0,0,0,0,0,0,0,0,0,0,0,0,0,0,0,0,0,0,0,0,0,0,0],"split_type":[0,0,0,0,0,0,0,0,0,0,0,0,0,0,0,0,0,0,0,0,0,0,0,0,0,0,0,0,0,0,0,0,0,0,0,0,0,0,0,0,0,0,0,0,0,0,0,0,0,0,0,0,0,0,0,0,0,0,0,0,0,0,0,0,0,0,0,0,0,0,0,0,0,0,0,0,0,0,0,0,0,0,0,0,0,0,0,0,0,0,0,0,0,0,0,0,0,0,0,0,0,0,0,0,0,0,0,0,0,0,0,0,0,0,0,0,0,0,0,0,0,0,0,0,0,0,0],"sum_hessian":[2.4394273E4,1.3048106E4,1.1346168E4,9.064122E3,3.9839844E3,8.370232E3,2.9759348E3,4.6648955E3,4.3992266E3,1.411886E3,2.5720984E3,6.992591E3,1.3776417E3,1.4355537E3,1.5403811E3,3.9029814E3,7.619141E2,7.671938E2,3.6320325E3,3.5675345E2,1.0551326E3,1.4336641E3,1.1384342E3,2.5456135E3,4.4469775E3,4.8581027E2,8.918315E2,5.5663E2,8.7892377E2,3.9664847E2,1.1437327E3,2.8072043E3,1.095777E3,3.3578366E2,4.2613043E2,4.4985178E2,3.1734204E2,2.7143804E3,9.176522E2,3.313733E2,2.5380165E1,7.6587384E2,2.892587E2,3.4025104E2,1.0934131E3,5.471399E2,5.912944E2,2.1208813E3,4.247322E2,2.3530056E3,2.093972E3,2.044698E1,4.653633E2,3.0569357E2,5.861379E2,3.0960696E2,2.4702301E2,8.517333E2,2.7190481E1,3.12721E2,8.392745E1,9.6881555E2,1.7491711E2,1.7659337E3,1.0412706E3,2.0050073E2,8.952762E2,3.1119702E2,2.4586653E1,3.4397247E2,8.215798E1,2.4296263E2,2.0688913E2,1.0393137E2,2.1341066E2,5.0584906E2,2.2085312E3,2.5385287E2,6.637993E2,2.8471594E2,4.6657333E1,2.0685833E1,4.6943316E0,5.6770886E2,1.9816495E2,2.298896E2,5.9369114E1,2.9908173E2,4.116931E1,6.8676227E2,4.066508E2,3.0101978E2,2.4612012E2,2.9161935E2,2.9967502E2,2.6638638E2,1.8544949E3,4.460427E1,3.8012793E2,1.1482946E3,1.204711E3,1.8346409E3,2.5933093E2,4.431161E0,1.6015818E1,2.615669E2,2.037964E2,2.0995213E2,9.574145E1,1.7172478E2,4.144131E2,1.2595581E2,1.8365117E2,2.3724043E2,9.782578E0,6.994767E2,1.522566E2,1.7088755E1,1.0101727E1,1.6241795E2,1.5030305E2,1.5537152E1,6.8390305E1,2.7588962E2,6.9292596E2,5.5338303E1,1.1957881E2],"tree_param":{"num_deleted":"0","num_feature":"18","num_nodes":"127","size_leaf_vector":"1"}},{"base_weights":[-1.9024711E-3,3.6835203E-1,-4.292143E-1,6.179898E-1,5.0227396E-2,-2.909551E-1,-7.0943844E-1,7.936823E-1,4.2414045E-1,-3.445512E-1,1.8375184E-1,-1.3533587E-3,-3.7509325E-1,-4.2250985E-1,-7.966079E-1,9.2093056E-1,6.1431324E-1,5.0519085E-1,-9.3206234E-2,-5.9878385E-1,-6.505557E-2,3.8772652E-1,-2.4427457E-1,2.8230268E-1,-9.0895265E-2,-3.9808193E-1,3.7634698E-1,-1.5355055E-1,-7.185746E-1,-7.1722686E-1,-9.480444E-1,8.0771214E-1,1.1151491E0,6.522294E-1,9.087822E-2,7.514969E-2,6.589378E-1,5.376978E-2,-2.8000697E-1,-7.760912E-1,-3.7601626E-1,-2.8924593E-1,1.6802764E-1,6.563737E-1,1.8722364E-1,4.709765E-2,-4.7419643E-1,3.404876E-1,-1.1247895E0,-2.434431E-1,1.1948317E-1,-7.1075267E-1,-3.6056763E-1,1.665503E-1,1.3132316E0,-3.7346768E-1,2.334398E-2,-7.4402124E-1,6.027126E-2,-5.727552E-1,-8.109906E-1,-9.848613E-1,-2.1613638E-1,4.2009454E-2,6.584916E-3,5.9436888E-2,4.259104E-2,2.9445102E-2,4.7357276E-2,7.0130125E-2,-1.4514115E-3,4.6674936E-4,4.176743E-2,3.8587295E-2,2.1296911E-2,2.8501516E-2,-1.497623E-3,-1.9822937E-2,9.158155E-3,-4.488849E-2,-2.0329267E-2,4.003999E-3,-3.0552099E-2,-1.8557457E-2,3.4413923E-2,-2.5165551E-3,2.8989783E-2,2.6706789E-2,5.108874E-2,-1.1471644E-2,1.7676363E-2,2.0107297E-2,-1.4450319E-2,-2.8106997E-2,-6.093317E-3,1.2337896E-2,5.4704916E-2,-6.850521E-2,-1.6825626E-2,-1.0790143E-2,-7.1894825E-2,8.715731E-3,-4.2128127E-2,-2.1142151E-2,-4.3689847E-2,-6.351845E-2,-1.7250096E-2,1.5477168E-2,-4.1572273E-2,1.4460563E-2,7.213095E-2,-2.1869639E-2,5.5606168E-2,3.8039844E-2,-3.5848864E-3,-2.893472E-2,-4.9488705E-2,-2.9953554E-2,-3.5247386E-3,-4.141942E-2,5.2243033E-3,-5.203268E-2,-3.778131E-2,-2.4702193E-2,2.2389462E-2],"categories":[],"categories_nodes":[],"categories_segments":[],"categories_sizes":[],"default_left":[0,0,0,0,0,0,0,0,0,0,0,0,0,0,0,0,0,0,0,0,0,0,0,0,0,0,0,0,0,0,0,0,0,0,0,0,0,0,0,0,0,0,0,0,0,0,0,0,0,0,0,0,0,0,0,0,0,0,0,0,0,0,0,0,0,0,0,0,0,0,0,0,0,0,0,0,0,0,0,0,0,0,0,0,0,0,0,0,0,0,0,0,0,0,0,0,0,0,0,0,0,0,0,0,0,0,0,0,0,0,0,0,0,0,0,0,0,0,0,0,0,0,0,0,0],"id":7,"left_children":[1,3,5,7,9,11,13,15,17,19,21,23,25,27,29,31,33,35,37,39,41,43,45,47,49,51,53,55,57,59,61,63,65,67,69,71,73,75,77,79,81,83,85,87,89,91,93,95,97,99,101,103,105,107,109,111,113,115,-1,117,119,121,123,-1,-1,-1,-1,-1,-1,-1,-1,-1,-1,-1,-1,-1,-1,-1,-1,-1,-1,-1,-1,-1,-1,-1,-1,-1,-1,-1,-1,-1,-1,-1,-1,-1,-1,-1,-1,-1,-1,-1,-1,-1,-1,-1,-1,-1,-1,-1,-1,-1,-1,-1,-1,-1,-1,-1,-1,-1,-1,-1,-1,-1,-1],"loss_changes":[3.8519846E3,1.0358077E3,4.3759546E2,2.4845337E2,3.024365E2,1.8442493E2,9.291467E1,8.675244E1,1.4588788E2,1.0292938E2,3.7443903E2,4.332577E1,1.01481384E2,6.92619E1,3.3557495E1,4.815332E1,3.1497803E1,1.9865808E2,1.2986615E1,2.957312E1,3.622157E1,1.5623169E2,9.279874E1,3.3805477E1,4.1677177E1,6.640491E1,3.3934E1,1.7880894E1,2.1157608E1,2.4894165E1,2.6093994E1,3.0941101E1,1.4708313E1,2.7037842E1,1.7320753E1,3.9587788E1,5.7755066E1,1.1503227E1,1.1320547E1,1.8453125E1,3.6395653E1,2.8511292E1,3.06246E1,5.4711792E1,1.1544232E2,7.306961E1,2.3845154E1,2.7410595E1,2.542101E0,2.4372902E1,2.8866367E1,2.80643E1,7.140961E1,2.0728287E1,3.6091232E0,1.985971E1,1.7982231E1,1.5929565E1,0E0,9.732773E0,1.829364E1,1.0970947E1,9.152664E0,0E0,0E0,0E0,0E0,0E0,0E0,0E0,0E0,0E0,0E0,0E0,0E0,0E0,0E0,0E0,0E0,0E0,0E0,0E0,0E0,0E0,0E0,0E0,0E0,0E0,0E0,0E0,0E0,0E0,0E0,0E0,0E0,0E0,0E0,0E0,0E0,0E0,0E0,0E0,0E0,0E0,0E0,0E0,0E0,0E0,0E0,0E0,0E0,0E0,0E0,0E0,0E0,0E0,0E0,0E0,0E0,0E0,0E0,0E0,0E0,0E0,0E0],"parents":[2147483647,0,0,1,1,2,2,3,3,4,4,5,5,6,6,7,7,8,8,9,9,10,10,11,11,12,12,13,13,14,14,15,15,16,16,17,17,18,18,19,19,20,20,21,21,22,22,23,23,24,24,25,25,26,26,27,27,28,28,29,29,30,30,31,31,32,32,33,33,34,34,35,35,36,36,37,37,38,38,39,39,40,40,41,41,42,42,43,43,44,44,45,45,46,46,47,47,48,48,49,49,50,50,51,51,52,52,53,53,54,54,55,55,56,56,57,57,59,59,60,60,61,61,62,62],"right_children":[2,4,6,8,10,12,14,16,18,20,22,24,26,28,30,32,34,36,38,40,42,44,46,48,50,52,54,56,58,60,62,64,66,68,70,72,74,76,78,80,82,84,86,88,90,92,94,96,98,100,102,104,106,108,110,112,114,116,-1,118,120,122,124,-1,-1,-1,-1,-1,-1,-1,-1,-1,-1,-1,-1,-1,-1,-1,-1,-1,-1,-1,-1,-1,-1,-1,-1,-1,-1,-1,-1,-1,-1,-1,-1,-1,-1,-1,-1,-1,-1,-1,-1,-1,-1,-1,-1,-1,-1,-1,-1,-1,-1,-1,-1,-1,-1,-1,-1,-1,-1,-1,-1,-1,-1],"split_conditions":[3.381E-3,1.0714E0,1E0,1E0,-8.2E-3,8.173E-3,5.888E-3,5E0,4.5E-3,7.451E-3,6E-3,5.138E-3,1.9388E-2,2.0111E0,2.1938E0,6.851E-1,1E1,-2.5E-3,7.9E-3,-1.18E-2,-1.93E-2,1E0,1E0,2.8522E0,5.113E-3,4.2E-3,2.894E0,8.21E1,4.8713E0,8.941E-3,1.6268E-2,9.8E-3,4E0,9.225E-1,1.037E0,1.0928E0,1.4E-3,5.93E1,5E0,2.335E0,1E0,2.2506E-2,1.0994E-2,1.4769E0,-3.8E-3,1.26E-2,2.469E0,2.0365E0,4E0,1.88E-2,2.8989E0,1.0605E-2,-7.39E-2,5.21E-2,1.7422E0,1.968E0,1.0381E0,5.7E-3,6.027126E-2,1.0888E-2,2.2506E-2,2.551E0,2.789E0,4.2009454E-2,6.584916E-3,5.9436888E-2,4.259104E-2,2.9445102E-2,4.7357276E-2,7.0130125E-2,-1.4514115E-3,4.6674936E-4,4.176743E-2,3.8587295E-2,2.1296911E-2,2.8501516E-2,-1.497623E-3,-1.9822937E-2,9.158155E-3,-4.488849E-2,-2.0329267E-2,4.003999E-3,-3.0552099E-2,-1.8557457E-2,3.4413923E-2,-2.5165551E-3,2.8989783E-2,2.6706789E-2,5.108874E-2,-1.1471644E-2,1.7676363E-2,2.0107297E-2,-1.4450319E-2,-2.8106997E-2,-6.093317E-3,1.2337896E-2,5.4704916E-2,-6.850521E-2,-1.6825626E-2,-1.0790143E-2,-7.1894825E-2,8.715731E-3,-4.2128127E-2,-2.1142151E-2,-4.3689847E-2,-6.351845E-2,-1.7250096E-2,1.5477168E-2,-4.1572273E-2,1.4460563E-2,7.213095E-2,-2.1869639E-2,5.5606168E-2,3.8039844E-2,-3.5848864E-3,-2.893472E-2,-4.9488705E-2,-2.9953554E-2,-3.5247386E-3,-4.141942E-2,5.2243033E-3,-5.203268E-2,-3.778131E-2,-2.4702193E-2,2.2389462E-2],"split_indices":[0,6,5,5,7,0,0,3,7,10,7,0,10,6,14,13,3,7,7,7,7,5,5,14,10,10,6,2,13,0,10,7,4,13,17,13,7,2,16,17,5,10,9,13,7,7,17,13,3,7,14,0,7,7,13,6,6,7,0,9,10,17,17,0,0,0,0,0,0,0,0,0,0,0,0,0,0,0,0,0,0,0,0,0,0,0,0,0,0,0,0,0,0,0,0,0,0,0,0,0,0,0,0,0,0,0,0,0,0,0,0,0,0,0,0,0,0,0,0,0,0,0,0,0,0],"split_type":[0,0,0,0,0,0,0,0,0,0,0,0,0,0,0,0,0,0,0,0,0,0,0,0,0,0,0,0,0,0,0,0,0,0,0,0,0,0,0,0,0,0,0,0,0,0,0,0,0,0,0,0,0,0,0,0,0,0,0,0,0,0,0,0,0,0,0,0,0,0,0,0,0,0,0,0,0,0,0,0,0,0,0,0,0,0,0,0,0,0,0,0,0,0,0,0,0,0,0,0,0,0,0,0,0,0,0,0,0,0,0,0,0,0,0,0,0,0,0,0,0,0,0,0,0],"sum_hessian":[2.434462E4,1.3043056E4,1.13015625E4,7.3074897E3,5.7355664E3,7.5693374E3,3.7322249E3,3.8313716E3,3.4761182E3,1.4490305E3,4.286536E3,1.704543E3,5.8647944E3,8.712845E2,2.8609404E3,2.238581E3,1.5927905E3,3.0054797E3,4.7063828E2,7.580232E2,6.910073E2,2.9033032E3,1.3832327E3,4.0818893E2,1.296354E3,5.691285E3,1.7350912E2,4.5751367E2,4.137708E2,1.8812235E3,9.797168E2,1.4177732E3,8.2080786E2,1.4847987E3,1.0799176E2,7.9208936E2,2.2133904E3,2.634953E2,2.0714297E2,4.2044543E2,3.3757776E2,3.5231873E2,3.3868857E2,1.2396136E3,1.6636897E3,6.102472E2,7.729855E2,3.9277625E2,1.5412677E1,7.516454E2,5.447086E2,6.0748267E2,5.0838027E3,1.4281342E2,3.0695717E1,2.0371149E2,2.5380219E2,4.0902634E2,4.74447E0,7.436217E2,1.1376018E3,9.323356E2,4.7381207E1,1.3524103E3,6.536293E1,6.3848535E2,1.8232254E2,1.2250743E3,2.597244E2,8.218749E0,9.977301E1,7.3003033E2,6.2059017E1,1.4894995E3,7.23891E2,3.612455E1,2.2737076E2,1.6581352E2,4.1329456E1,3.150116E2,1.0543384E2,1.1487756E2,2.227002E2,3.2574808E2,2.657064E1,2.2173723E2,1.1695135E2,9.309256E2,3.0868802E2,4.7432825E2,1.1893615E3,2.968094E2,3.134378E2,6.1787994E2,1.551055E2,3.506274E2,4.214884E1,1.1094933E1,4.3177447E0,7.358811E2,1.5764263E1,5.1621014E2,2.8498455E1,2.2115883E2,3.8632382E2,8.4051216E1,4.9997515E3,1.25606514E2,1.7206898E1,3.893016E0,2.6802702E1,1.960484E2,7.66309E0,2.8295725E1,2.2550647E2,2.4677417E2,1.6225217E2,7.062272E2,3.7394566E1,1.1165865E3,2.1015324E1,7.4663947E2,1.8569614E2,3.3686943E1,1.3694262E1],"tree_param":{"num_deleted":"0","num_feature":"18","num_nodes":"125","size_leaf_vector":"1"}},{"base_weights":[6.5389904E-3,3.641577E-1,-4.0512592E-1,6.006452E-1,6.1473146E-2,-2.6696193E-1,-6.870349E-1,7.732959E-1,4.0986717E-1,2.1497843E-1,-2.5472233E-1,2.96171E-2,-3.5241953E-1,-4.1600478E-1,-7.689406E-1,8.526897E-1,5.462461E-1,7.381547E-1,3.1354874E-1,1.7088725E-1,1.3361037E0,-1.929489E-2,-4.4144264E-1,6.969859E-2,-6.16031E-1,-3.7339723E-1,5.0473654E-1,-1.863131E-1,-6.794484E-1,-6.9004977E-1,-9.259831E-1,1.076328E0,7.7155787E-1,1.7845091E-1,6.2849945E-1,8.8261235E-1,5.149074E-1,5.825958E-1,2.0746371E-1,3.9244932E-1,-1.0684665E-2,1.3876538E0,-6.93808E-3,1.5719554E-1,-4.4861212E-1,2.4503356E-1,-5.08291E-1,-1.7423536E-1,2.102118E-1,-1.2527611E0,-4.2932156E-2,-6.7456025E-1,-3.371988E-1,7.3671705E-1,-3.828207E-1,-4.234861E-1,-2.6975147E-2,-4.399592E-1,-9.711093E-1,-6.0748345E-1,-8.9034075E-1,-9.6456593E-1,3.719439E-2,5.1373243E-2,7.223635E-2,3.672947E-2,5.8559395E-2,-1.3188685E-3,4.2356923E-2,3.819444E-2,1.4108243E-2,3.6682334E-2,6.161196E-2,-6.166657E-3,3.249889E-2,3.183965E-2,4.2823195E-3,2.5858788E-2,6.2590907E-3,2.1096368E-3,2.6851922E-2,1.1190854E-2,-7.913656E-3,6.0081042E-2,8.352703E-2,-7.98848E-3,1.7531663E-2,-2.7414605E-2,2.2062302E-2,4.528185E-2,-6.938488E-3,-3.371051E-2,-1.7516984E-2,-1.12715205E-2,5.5761814E-2,6.442318E-3,4.9313817E-2,-3.007462E-2,-7.073699E-2,1.9002285E-2,-2.4477204E-2,-2.6135683E-2,-4.3958407E-2,-2.5486274E-2,-1.2646079E-2,2.0771943E-2,6.09363E-2,-6.208224E-2,1.4865115E-2,1.4655013E-3,-2.5902689E-2,9.841326E-3,-1.5271427E-2,-4.4998523E-2,7.305551E-3,-5.786518E-2,-2.0276928E-2,-4.0331673E-2,-2.219466E-2,-4.6391375E-2,-2.416562E-2,-5.4977357E-2,-4.378392E-2,3.5051506E-2,-1.022357E-2],"categories":[],"categories_nodes":[],"categories_segments":[],"categories_sizes":[],"default_left":[0,0,0,0,0,0,0,0,0,0,0,0,0,0,0,0,0,0,0,0,0,0,0,0,0,0,0,0,0,0,0,0,0,0,0,0,0,0,0,0,0,0,0,0,0,0,0,0,0,0,0,0,0,0,0,0,0,0,0,0,0,0,0,0,0,0,0,0,0,0,0,0,0,0,0,0,0,0,0,0,0,0,0,0,0,0,0,0,0,0,0,0,0,0,0,0,0,0,0,0,0,0,0,0,0,0,0,0,0,0,0,0,0,0,0,0,0,0,0,0,0,0,0,0,0],"id":8,"left_children":[1,3,5,7,9,11,13,15,17,19,21,23,25,27,29,31,33,35,37,39,41,43,45,47,49,51,53,55,57,59,61,63,65,67,69,71,73,75,77,79,81,83,-1,85,87,89,91,93,95,97,99,101,103,105,107,109,111,113,115,117,119,121,123,-1,-1,-1,-1,-1,-1,-1,-1,-1,-1,-1,-1,-1,-1,-1,-1,-1,-1,-1,-1,-1,-1,-1,-1,-1,-1,-1,-1,-1,-1,-1,-1,-1,-1,-1,-1,-1,-1,-1,-1,-1,-1,-1,-1,-1,-1,-1,-1,-1,-1,-1,-1,-1,-1,-1,-1,-1,-1,-1,-1,-1,-1],"loss_changes":[3.5761665E3,9.303917E2,4.3955322E2,2.3992212E2,2.7685602E2,1.9215973E2,8.199133E1,6.842114E1,1.09355286E2,1.8943178E2,8.188674E1,4.3884754E1,1.0599188E2,5.207962E1,3.4509033E1,5.0424072E1,2.9914001E1,2.4752563E1,7.64093E1,1.4872205E2,1.134671E1,6.266821E1,4.784282E1,5.4818195E1,3.5980274E1,6.230072E1,2.932697E1,1.7450031E1,2.7507004E1,3.0753296E1,3.5419373E1,1.180249E1,2.9740234E1,2.5238386E1,3.778665E1,2.3664978E1,2.6981575E1,2.0294708E1,4.8974823E1,8.423352E1,7.0353424E1,5.0901184E0,0E0,3.599042E1,2.1629166E1,2.3722063E1,2.4492813E1,3.8741325E1,6.3837402E1,3.8872986E0,1.0261177E1,1.8511719E1,7.439728E1,1.669471E1,1.7848654E1,8.021553E0,1.7421196E1,6.0253708E1,1.8351944E1,4.3494476E1,7.8408813E0,9.796387E0,6.1991196E0,0E0,0E0,0E0,0E0,0E0,0E0,0E0,0E0,0E0,0E0,0E0,0E0,0E0,0E0,0E0,0E0,0E0,0E0,0E0,0E0,0E0,0E0,0E0,0E0,0E0,0E0,0E0,0E0,0E0,0E0,0E0,0E0,0E0,0E0,0E0,0E0,0E0,0E0,0E0,0E0,0E0,0E0,0E0,0E0,0E0,0E0,0E0,0E0,0E0,0E0,0E0,0E0,0E0,0E0,0E0,0E0,0E0,0E0,0E0,0E0,0E0,0E0],"parents":[2147483647,0,0,1,1,2,2,3,3,4,4,5,5,6,6,7,7,8,8,9,9,10,10,11,11,12,12,13,13,14,14,15,15,16,16,17,17,18,18,19,19,20,20,21,21,22,22,23,23,24,24,25,25,26,26,27,27,28,28,29,29,30,30,31,31,32,32,33,33,34,34,35,35,36,36,37,37,38,38,39,39,40,40,41,41,43,43,44,44,45,45,46,46,47,47,48,48,49,49,50,50,51,51,52,52,53,53,54,54,55,55,56,56,57,57,58,58,59,59,60,60,61,61,62,62],"right_children":[2,4,6,8,10,12,14,16,18,20,22,24,26,28,30,32,34,36,38,40,42,44,46,48,50,52,54,56,58,60,62,64,66,68,70,72,74,76,78,80,82,84,-1,86,88,90,92,94,96,98,100,102,104,106,108,110,112,114,116,118,120,122,124,-1,-1,-1,-1,-1,-1,-1,-1,-1,-1,-1,-1,-1,-1,-1,-1,-1,-1,-1,-1,-1,-1,-1,-1,-1,-1,-1,-1,-1,-1,-1,-1,-1,-1,-1,-1,-1,-1,-1,-1,-1,-1,-1,-1,-1,-1,-1,-1,-1,-1,-1,-1,-1,-1,-1,-1,-1,-1,-1,-1,-1,-1],"split_conditions":[3.381E-3,1.0714E0,1E0,1E0,1.8026E0,8.173E-3,5.888E-3,6E0,3.174E-3,2.1868E0,1E0,1.3466E-2,2.0907E-2,2.0111E0,2.543E0,3.411E-1,-4.998E-3,6.137E-1,3.519E-1,1E0,4.676E0,2.6894E0,2.172E-3,-4.184E-3,5.668E-3,4.2E-3,1.6509E-2,3E0,3.821E-3,1.2495E-2,1.7535E-2,1.1201E0,1.033E0,1.1828E-2,3.626E-3,8.355E-1,-1.341E-3,6E0,5.793E-1,-5.736E-3,4.5E-1,2.8253E0,-6.93808E-3,-8.288E-3,1.4553E-2,2.0918E0,-4.861E-3,1.4913E-2,2.0626E0,1.515E-2,1.474E0,1.2613E-2,-1.0104E-2,5.3856E-2,1.1873E0,2.807E-1,2.253E-3,-7.114E-3,2.2876E0,-9.892E-3,9.338E-1,-1.842E-2,2.308E-1,5.1373243E-2,7.223635E-2,3.672947E-2,5.8559395E-2,-1.3188685E-3,4.2356923E-2,3.819444E-2,1.4108243E-2,3.6682334E-2,6.161196E-2,-6.166657E-3,3.249889E-2,3.183965E-2,4.2823195E-3,2.5858788E-2,6.2590907E-3,2.1096368E-3,2.6851922E-2,1.1190854E-2,-7.913656E-3,6.0081042E-2,8.352703E-2,-7.98848E-3,1.7531663E-2,-2.7414605E-2,2.2062302E-2,4.528185E-2,-6.938488E-3,-3.371051E-2,-1.7516984E-2,-1.12715205E-2,5.5761814E-2,6.442318E-3,4.9313817E-2,-3.007462E-2,-7.073699E-2,1.9002285E-2,-2.4477204E-2,-2.6135683E-2,-4.3958407E-2,-2.5486274E-2,-1.2646079E-2,2.0771943E-2,6.09363E-2,-6.208224E-2,1.4865115E-2,1.4655013E-3,-2.5902689E-2,9.841326E-3,-1.5271427E-2,-4.4998523E-2,7.305551E-3,-5.786518E-2,-2.0276928E-2,-4.0331673E-2,-2.219466E-2,-4.6391375E-2,-2.416562E-2,-5.4977357E-2,-4.378392E-2,3.5051506E-2,-1.022357E-2],"split_indices":[0,6,5,5,6,0,0,3,10,13,5,12,10,6,6,8,12,8,8,5,17,6,10,12,10,10,12,16,12,12,10,13,13,10,12,13,12,3,6,12,8,13,0,12,10,6,12,10,13,12,17,0,12,9,13,8,12,12,13,12,1,12,8,0,0,0,0,0,0,0,0,0,0,0,0,0,0,0,0,0,0,0,0,0,0,0,0,0,0,0,0,0,0,0,0,0,0,0,0,0,0,0,0,0,0,0,0,0,0,0,0,0,0,0,0,0,0,0,0,0,0,0,0,0,0],"split_type":[0,0,0,0,0,0,0,0,0,0,0,0,0,0,0,0,0,0,0,0,0,0,0,0,0,0,0,0,0,0,0,0,0,0,0,0,0,0,0,0,0,0,0,0,0,0,0,0,0,0,0,0,0,0,0,0,0,0,0,0,0,0,0,0,0,0,0,0,0,0,0,0,0,0,0,0,0,0,0,0,0,0,0,0,0,0,0,0,0,0,0,0,0,0,0,0,0,0,0,0,0,0,0,0,0,0,0,0,0,0,0,0,0,0,0,0,0,0,0,0,0,0,0,0,0],"sum_hessian":[2.4289488E4,1.2998167E4,1.129132E4,7.2962734E3,5.701894E3,7.5790967E3,3.712224E3,3.828223E3,3.4680505E3,3.8388577E3,1.8630365E3,1.6952493E3,5.8838477E3,8.631891E2,2.849035E3,2.8340334E3,9.941894E2,7.84952E2,2.6830984E3,3.694792E3,1.4406572E2,8.247652E2,1.0382712E3,1.5971462E3,9.810306E1,5.743953E3,1.3989424E2,4.6224927E2,4.0093985E2,1.900395E3,9.4864E2,7.508451E2,2.0831885E3,1.8250496E2,8.1168445E2,4.745083E2,3.1044376E2,7.5722687E2,1.9258715E3,1.6638627E3,2.0309292E3,1.3932297E2,4.7427497E0,5.8476984E2,2.3999538E2,9.17646E1,9.4650665E2,5.8339984E2,1.01374634E3,4.582721E1,5.2275845E1,6.141299E2,5.129823E3,1.11130684E2,2.8763561E1,1.848365E2,2.7741278E2,2.2172653E2,1.792133E2,1.3488771E3,5.515179E2,9.122015E2,3.64385E1,6.665028E2,8.4342255E1,1.909624E3,1.7356445E2,1.4033072E2,4.217424E1,5.824847E2,2.291997E2,3.3511154E2,1.3939676E2,5.4109512E1,2.5633423E2,6.823296E2,7.4897316E1,4.0288754E2,1.522984E3,4.8674408E2,1.1771185E3,7.840177E2,1.2469116E3,8.7428856E1,5.189411E1,2.2149213E2,3.6327768E2,2.1626596E2,2.372942E1,3.3318176E1,5.844643E1,4.5970752E2,4.867991E2,5.6199023E2,2.1409597E1,9.1871936E2,9.5027016E1,1.0189398E1,3.5637814E1,2.6809864E1,2.5465982E1,3.5483673E2,2.5929315E2,1.681446E3,3.4483772E3,6.792519E1,4.320549E1,1.2411888E1,1.6351673E1,3.187059E1,1.5296591E2,1.5376282E2,1.2364995E2,1.2401846E2,9.770807E1,1.3390628E2,4.5307014E1,6.062743E2,7.4260284E2,5.036108E2,4.7907043E1,3.5723026E2,5.5497125E2,9.328062E0,2.7110435E1],"tree_param":{"num_deleted":"0","num_feature":"18","num_nodes":"125","size_leaf_vector":"1"}},{"base_weights":[2.5083392E-3,3.4313637E-1,-3.957407E-1,5.5783826E-1,3.089173E-2,-2.6805466E-1,-6.6102207E-1,7.324015E-1,3.669099E-1,1.5264487E-1,-3.7142596E-1,-9.253877E-2,-3.9687043E-1,-8.618188E-1,-5.583837E-1,8.558509E-1,5.9472865E-1,4.387796E-1,-1.5281846E-1,3.8646293E-1,-3.1288367E-2,-1.4389282E-1,-5.5822146E-1,-3.0899402E-1,6.1913324E-3,-5.523941E-1,-2.7563262E-1,-9.142469E-1,-6.8819E-2,-2.101788E-1,-7.823023E-1,8.046838E-1,1.1865667E0,2.4165577E-1,6.63342E-1,3.9373603E-2,5.9185135E-1,-1.7758979E-1,1.0495694E0,5.2536745E-2,5.429853E-1,-3.7252712E-1,1.1089245E-1,-5.1525142E-2,-1.0747303E0,-1.7618412E-2,-6.1564636E-1,-3.713567E-1,9.6592844E-1,2.1944438E-1,-2.6753625E-1,-7.9238397E-1,-4.9645314E-1,-1.7631684E-1,-4.9216074E-1,-7.997008E-1,-1.0238777E0,-2.7099678E-1,8.242297E-1,-2.9440695E-1,3.103937E-1,-6.213104E-1,-8.9051276E-1,4.4797298E-2,2.8161425E-2,6.042568E-2,6.8081142E-3,6.332995E-3,4.136437E-2,3.8480967E-2,2.008305E-2,-1.4052096E-2,8.447033E-3,2.6636189E-2,4.8050705E-2,-3.1581517E-2,-5.270963E-3,7.081206E-2,1.8482573E-2,-3.7722904E-3,2.482028E-2,3.998401E-2,4.663059E-3,-1.9489666E-2,7.69796E-2,2.01801E-2,-1.5142157E-2,-2.0846562E-2,1.5617204E-2,-5.9606027E-2,-2.207757E-2,1.4847402E-2,-4.533451E-2,-3.3136934E-2,-3.522461E-3,-1.5129072E-2,-5.536389E-2,5.9590872E-2,-3.340307E-2,7.045602E-3,4.280179E-2,-1.6832149E-2,2.2589687E-2,-3.164579E-2,-5.2135307E-2,-3.5516333E-2,-2.023003E-2,-1.9358316E-2,-2.0270108E-3,-2.8122127E-2,1.1920226E-2,-7.9708835E-3,-4.2137206E-2,-5.2248206E-2,8.328412E-3,-1.982302E-2,6.450386E-2,1.4831798E-2,6.328861E-2,-2.963083E-2,-9.5420275E-3,2.3022024E-2,-4.8552714E-2,-5.0419558E-2,-2.6744187E-2,-5.3956028E-2,-3.7479315E-2],"categories":[],"categories_nodes":[],"categories_segments":[],"categories_sizes":[],"default_left":[0,0,0,0,0,0,0,0,0,0,0,0,0,0,0,0,0,0,0,0,0,0,0,0,0,0,0,0,0,0,0,0,0,0,0,0,0,0,0,0,0,0,0,0,0,0,0,0,0,0,0,0,0,0,0,0,0,0,0,0,0,0,0,0,0,0,0,0,0,0,0,0,0,0,0,0,0,0,0,0,0,0,0,0,0,0,0,0,0,0,0,0,0,0,0,0,0,0,0,0,0,0,0,0,0,0,0,0,0,0,0,0,0,0,0,0,0,0,0,0,0,0,0,0,0,0,0],"id":9,"left_children":[1,3,5,7,9,11,13,15,17,19,21,23,25,27,29,31,33,35,37,39,41,43,45,47,49,51,53,55,57,59,61,63,65,67,69,71,73,75,77,79,81,83,85,87,89,91,93,95,97,99,101,103,105,107,109,111,113,115,117,119,121,123,125,-1,-1,-1,-1,-1,-1,-1,-1,-1,-1,-1,-1,-1,-1,-1,-1,-1,-1,-1,-1,-1,-1,-1,-1,-1,-1,-1,-1,-1,-1,-1,-1,-1,-1,-1,-1,-1,-1,-1,-1,-1,-1,-1,-1,-1,-1,-1,-1,-1,-1,-1,-1,-1,-1,-1,-1,-1,-1,-1,-1,-1,-1,-1,-1],"loss_changes":[3.2786045E3,8.732418E2,3.7713513E2,2.568855E2,2.600881E2,1.7001471E2,7.396985E1,6.7855225E1,1.3788693E2,1.7536551E2,5.227585E1,6.812197E1,8.156616E1,5.064807E1,1.8672815E2,3.4764526E1,4.6004578E1,1.9807361E2,1.3464143E1,9.374014E1,1.10800735E2,4.7782467E1,2.0936447E1,7.967775E1,1.27818855E2,2.4973755E1,5.232335E1,1.33914795E1,1.4068297E1,4.13137E1,2.4714294E1,3.992993E1,6.2027283E0,2.0844341E1,4.4012085E1,3.736989E1,5.0479492E1,1.42973385E1,1.5718231E0,3.2699814E1,1.4090012E2,2.2661438E1,1.9530746E2,6.775099E1,3.0413399E0,1.8840479E1,1.5582947E1,4.7738876E1,1.8108082E1,6.1322933E1,4.7799118E1,1.3422531E1,2.9915436E1,4.7888596E1,3.9520493E1,1.53506775E1,1.486145E1,1.288233E1,2.8153267E0,2.4822632E1,2.563366E1,1.905037E1,2.2130066E1,0E0,0E0,0E0,0E0,0E0,0E0,0E0,0E0,0E0,0E0,0E0,0E0,0E0,0E0,0E0,0E0,0E0,0E0,0E0,0E0,0E0,0E0,0E0,0E0,0E0,0E0,0E0,0E0,0E0,0E0,0E0,0E0,0E0,0E0,0E0,0E0,0E0,0E0,0E0,0E0,0E0,0E0,0E0,0E0,0E0,0E0,0E0,0E0,0E0,0E0,0E0,0E0,0E0,0E0,0E0,0E0,0E0,0E0,0E0,0E0,0E0,0E0,0E0,0E0],"parents":[2147483647,0,0,1,1,2,2,3,3,4,4,5,5,6,6,7,7,8,8,9,9,10,10,11,11,12,12,13,13,14,14,15,15,16,16,17,17,18,18,19,19,20,20,21,21,22,22,23,23,24,24,25,25,26,26,27,27,28,28,29,29,30,30,31,31,32,32,33,33,34,34,35,35,36,36,37,37,38,38,39,39,40,40,41,41,42,42,43,43,44,44,45,45,46,46,47,47,48,48,49,49,50,50,51,51,52,52,53,53,54,54,55,55,56,56,57,57,58,58,59,59,60,60,61,61,62,62],"right_children":[2,4,6,8,10,12,14,16,18,20,22,24,26,28,30,32,34,36,38,40,42,44,46,48,50,52,54,56,58,60,62,64,66,68,70,72,74,76,78,80,82,84,86,88,90,92,94,96,98,100,102,104,106,108,110,112,114,116,118,120,122,124,126,-1,-1,-1,-1,-1,-1,-1,-1,-1,-1,-1,-1,-1,-1,-1,-1,-1,-1,-1,-1,-1,-1,-1,-1,-1,-1,-1,-1,-1,-1,-1,-1,-1,-1,-1,-1,-1,-1,-1,-1,-1,-1,-1,-1,-1,-1,-1,-1,-1,-1,-1,-1,-1,-1,-1,-1,-1,-1,-1,-1,-1,-1,-1,-1],"split_conditions":[3.577E-3,1.1268E0,1E0,1E0,2.1078E0,1.1283E-2,-9.892E-3,5.641E-1,5.1E-3,1E0,1E0,-6.13E-3,7.205E-3,1.685E-2,6E-3,1.0566E0,-4.6E-3,-2.5E-3,1.4055E0,-5.736E-3,-5.2E-3,3E-2,2.239E-3,1.4913E-2,4.601E-3,4.255E-3,2.5071E-2,2.4448E0,2.6872E-2,1.9685E0,1.4E-2,8.588E-1,8E0,-1.093E-3,3.626E-3,-6.8E-3,1.0097E0,4.765E-3,4.118E-1,1.0521E-2,5.425E-3,3.1789E0,3.719E-3,-1.28E-2,6E0,4.9E-3,3.3631E0,2.8114E0,2.6651E0,2.0123E0,8.603E-3,1.4E1,-7.601E-3,2.551E0,2.0907E-2,3E0,-1.06E-2,-2.5047E-2,2E1,-7.114E-3,2.6167E0,2.95E-3,5.961E-3,4.4797298E-2,2.8161425E-2,6.042568E-2,6.8081142E-3,6.332995E-3,4.136437E-2,3.8480967E-2,2.008305E-2,-1.4052096E-2,8.447033E-3,2.6636189E-2,4.8050705E-2,-3.1581517E-2,-5.270963E-3,7.081206E-2,1.8482573E-2,-3.7722904E-3,2.482028E-2,3.998401E-2,4.663059E-3,-1.9489666E-2,7.69796E-2,2.01801E-2,-1.5142157E-2,-2.0846562E-2,1.5617204E-2,-5.9606027E-2,-2.207757E-2,1.4847402E-2,-4.533451E-2,-3.3136934E-2,-3.522461E-3,-1.5129072E-2,-5.536389E-2,5.9590872E-2,-3.340307E-2,7.045602E-3,4.280179E-2,-1.6832149E-2,2.2589687E-2,-3.164579E-2,-5.2135307E-2,-3.5516333E-2,-2.023003E-2,-1.9358316E-2,-2.0270108E-3,-2.8122127E-2,1.1920226E-2,-7.9708835E-3,-4.2137206E-2,-5.2248206E-2,8.328412E-3,-1.982302E-2,6.450386E-2,1.4831798E-2,6.328861E-2,-2.963083E-2,-9.5420275E-3,2.3022024E-2,-4.8552714E-2,-5.0419558E-2,-2.6744187E-2,-5.3956028E-2,-3.7479315E-2],"split_indices":[0,6,5,5,6,0,12,8,7,5,5,12,10,10,7,13,7,7,13,12,7,7,10,10,12,10,0,6,0,13,7,6,4,12,12,7,13,10,8,10,12,13,12,7,4,7,13,14,13,13,10,15,12,17,10,15,7,12,15,12,14,10,10,0,0,0,0,0,0,0,0,0,0,0,0,0,0,0,0,0,0,0,0,0,0,0,0,0,0,0,0,0,0,0,0,0,0,0,0,0,0,0,0,0,0,0,0,0,0,0,0,0,0,0,0,0,0,0,0,0,0,0,0,0,0,0,0],"split_type":[0,0,0,0,0,0,0,0,0,0,0,0,0,0,0,0,0,0,0,0,0,0,0,0,0,0,0,0,0,0,0,0,0,0,0,0,0,0,0,0,0,0,0,0,0,0,0,0,0,0,0,0,0,0,0,0,0,0,0,0,0,0,0,0,0,0,0,0,0,0,0,0,0,0,0,0,0,0,0,0,0,0,0,0,0,0,0,0,0,0,0,0,0,0,0,0,0,0,0,0,0,0,0,0,0,0,0,0,0,0,0,0,0,0,0,0,0,0,0,0,0,0,0,0,0,0,0],"sum_hessian":[2.4166773E4,1.3025914E4,1.1140859E4,7.7179106E3,5.3080034E3,7.522496E3,3.618363E3,4.0299878E3,3.6879229E3,4.0755051E3,1.2324984E3,3.1851353E3,4.337361E3,1.221097E3,2.397266E3,2.1216182E3,1.9083695E3,3.240205E3,4.4771783E2,1.7941736E3,2.2813315E3,5.566979E2,6.7580054E2,9.9737646E2,2.1877588E3,1.8981E3,2.439261E3,1.1451106E3,7.598645E1,9.3917944E2,1.4580865E3,1.8405853E3,2.8103293E2,3.1148724E2,1.5968823E3,8.9827386E2,2.3419312E3,4.3959683E2,8.121008E0,5.73225E2,1.2209486E3,6.7070355E2,1.610628E3,5.0750098E2,4.9196907E1,6.518558E1,6.10615E2,9.516155E2,4.5761E1,1.230037E3,9.5772174E2,3.5597888E2,1.5421211E3,1.6738059E3,7.65455E2,5.645039E2,5.806067E2,6.2618694E1,1.3367754E1,8.0892303E2,1.3025644E2,5.8918396E2,8.689026E2,1.3334578E3,5.071276E2,2.7504056E2,5.9923515E0,2.615214E2,4.9965847E1,1.1340028E3,4.6287952E2,2.5808826E2,6.4018555E2,2.0209554E3,3.2097577E2,5.9038044E1,3.805588E2,4.476726E0,3.644282E0,4.454044E2,1.2782057E2,7.766497E2,4.4429892E2,6.6554224E2,5.161316E0,9.4343384E2,6.6719415E2,2.532801E2,2.5422087E2,4.0624504E1,8.572403E0,4.855843E1,1.662715E1,5.616983E2,4.891669E1,8.7169824E2,7.991727E1,4.049467E1,5.26633E0,1.0961858E3,1.3385123E2,8.743894E2,8.333236E1,2.198506E2,1.3612828E2,4.6096564E2,1.0811554E3,6.546314E2,1.01917456E3,6.9861395E2,6.684106E1,3.6001205E1,5.285027E2,5.7070404E2,9.902657E0,5.8710243E1,3.908453E0,6.9552746E0,6.41248E0,2.0705115E2,6.018719E2,1.1724658E2,1.3009865E1,1.0538222E2,4.8380176E2,3.684388E2,5.004638E2],"tree_param":{"num_deleted":"0","num_feature":"18","num_nodes":"127","size_leaf_vector":"1"}},{"base_weights":[-3.6819207E-3,3.239745E-1,-3.8076794E-1,4.8573422E-1,-3.8082164E-2,-2.549154E-1,-6.416328E-1,6.563897E-1,3.063845E-1,-3.468463E-1,1.16733894E-1,5.2047566E-2,-3.1274298E-1,-4.6802536E-1,-7.4902445E-1,7.5209606E-1,4.2661348E-1,3.7982553E-1,-2.122843E-1,-5.0475824E-1,-8.527572E-2,3.5217077E-1,-3.248801E-1,8.71238E-2,-9.5184404E-1,-2.653227E-1,-5.58088E-1,-2.8358257E-1,-6.713639E-1,-5.7208574E-1,-8.0790365E-1,9.713137E-1,6.674056E-1,5.0380105E-1,-5.365955E-2,-2.1890912E-2,5.20276E-1,3.3680937E-1,-2.6564628E-1,-3.852955E-1,-7.603868E-1,-2.892402E-1,5.95724E-1,6.269651E-1,1.6460893E-1,9.341431E-2,-4.4064444E-1,1.836891E-2,5.662845E-1,-3.3727175E-1,-7.046397E-2,-6.8529916E-1,-2.4319175E-1,-6.077612E-1,-2.1844852E-1,-1.9529784E-1,-6.3796264E-1,-9.367809E-1,-5.5925685E-1,-4.9034518E-1,-8.118151E-1,-7.155642E-1,-9.0770274E-1,4.6728764E-2,7.7435605E-2,3.4536567E-2,-7.233828E-4,7.119428E-2,2.3704035E-2,-2.5930455E-2,7.233356E-3,1.4753486E-2,-6.7473943E-3,3.3290368E-2,1.8126648E-2,-7.951417E-3,3.2680295E-2,1.0742994E-2,-1.6490744E-2,-2.1470962E-2,8.90824E-2,-5.744108E-2,-3.462108E-2,-2.7886678E-2,-1.599348E-3,2.3276616E-2,5.298952E-2,1.0644085E-2,3.7470486E-2,5.311948E-3,5.290053E-2,2.8236961E-2,-1.0457908E-2,-1.5127591E-2,-3.8279578E-2,-1.0353438E-2,6.086983E-3,-8.2218973E-4,4.004346E-2,-5.653143E-2,2.4155418E-3,-2.783077E-2,-5.148207E-2,-1.9723881E-2,-8.728492E-3,-2.688378E-2,-4.4888854E-2,-1.326887E-3,-3.8804404E-2,-2.1866923E-2,-3.2440342E-3,3.1385634E-2,-3.7506443E-2,1.4822154E-2,-4.922986E-2,-1.0215121E-2,-3.8927857E-2,-3.486842E-2,-1.1978175E-2,-4.2703606E-2,1.0582636E-2,-3.295148E-2,-4.8654374E-2,-4.690046E-2,-1.8141394E-2],"categories":[],"categories_nodes":[],"categories_segments":[],"categories_sizes":[],"default_left":[0,0,0,0,0,0,0,0,0,0,0,0,0,0,0,0,0,0,0,0,0,0,0,0,0,0,0,0,0,0,0,0,0,0,0,0,0,0,0,0,0,0,0,0,0,0,0,0,0,0,0,0,0,0,0,0,0,0,0,0,0,0,0,0,0,0,0,0,0,0,0,0,0,0,0,0,0,0,0,0,0,0,0,0,0,0,0,0,0,0,0,0,0,0,0,0,0,0,0,0,0,0,0,0,0,0,0,0,0,0,0,0,0,0,0,0,0,0,0,0,0,0,0,0,0],"id":10,"left_children":[1,3,5,7,9,11,13,15,17,19,21,23,25,27,29,31,33,35,37,39,41,43,45,47,49,51,53,55,57,59,61,63,65,67,69,71,73,75,77,79,81,83,85,87,89,91,93,95,97,99,-1,101,103,105,107,109,111,113,115,117,119,121,123,-1,-1,-1,-1,-1,-1,-1,-1,-1,-1,-1,-1,-1,-1,-1,-1,-1,-1,-1,-1,-1,-1,-1,-1,-1,-1,-1,-1,-1,-1,-1,-1,-1,-1,-1,-1,-1,-1,-1,-1,-1,-1,-1,-1,-1,-1,-1,-1,-1,-1,-1,-1,-1,-1,-1,-1,-1,-1,-1,-1,-1,-1],"loss_changes":[2.974203E3,7.543959E2,3.6718286E2,2.7219043E2,1.9022853E2,1.3408951E2,6.7417114E1,9.985864E1,1.6552856E2,5.4793304E1,2.756633E2,4.216992E1,7.3704285E1,5.2020172E1,2.2816406E1,5.8934082E1,4.9884445E1,2.1473517E2,1.58797E1,2.4886429E1,6.983381E1,8.894444E1,4.4719833E1,3.808941E1,1.07137375E1,4.9259644E1,1.7129303E1,2.2734444E1,1.9035248E1,1.0544281E1,1.4703491E1,1.727417E1,3.7054688E1,3.0798767E1,1.7335447E1,3.537229E1,6.437964E1,7.697819E0,1.525597E1,5.4821007E1,5.9505005E0,2.6645954E1,6.3537636E0,3.5282593E1,5.3448074E1,2.8744406E1,3.208055E1,2.3649557E1,1.9930332E1,5.8699026E0,0E0,1.1051575E1,5.243466E1,1.7587433E1,1.413158E1,1.850509E1,2.1150826E1,1.1856262E1,3.62052E1,2.1763428E1,6.3794327E0,1.2003662E1,1.2820923E1,0E0,0E0,0E0,0E0,0E0,0E0,0E0,0E0,0E0,0E0,0E0,0E0,0E0,0E0,0E0,0E0,0E0,0E0,0E0,0E0,0E0,0E0,0E0,0E0,0E0,0E0,0E0,0E0,0E0,0E0,0E0,0E0,0E0,0E0,0E0,0E0,0E0,0E0,0E0,0E0,0E0,0E0,0E0,0E0,0E0,0E0,0E0,0E0,0E0,0E0,0E0,0E0,0E0,0E0,0E0,0E0,0E0,0E0,0E0,0E0,0E0,0E0],"parents":[2147483647,0,0,1,1,2,2,3,3,4,4,5,5,6,6,7,7,8,8,9,9,10,10,11,11,12,12,13,13,14,14,15,15,16,16,17,17,18,18,19,19,20,20,21,21,22,22,23,23,24,24,25,25,26,26,27,27,28,28,29,29,30,30,31,31,32,32,33,33,34,34,35,35,36,36,37,37,38,38,39,39,40,40,41,41,42,42,43,43,44,44,45,45,46,46,47,47,48,48,49,49,51,51,52,52,53,53,54,54,55,55,56,56,57,57,58,58,59,59,60,60,61,61,62,62],"right_children":[2,4,6,8,10,12,14,16,18,20,22,24,26,28,30,32,34,36,38,40,42,44,46,48,50,52,54,56,58,60,62,64,66,68,70,72,74,76,78,80,82,84,86,88,90,92,94,96,98,100,-1,102,104,106,108,110,112,114,116,118,120,122,124,-1,-1,-1,-1,-1,-1,-1,-1,-1,-1,-1,-1,-1,-1,-1,-1,-1,-1,-1,-1,-1,-1,-1,-1,-1,-1,-1,-1,-1,-1,-1,-1,-1,-1,-1,-1,-1,-1,-1,-1,-1,-1,-1,-1,-1,-1,-1,-1,-1,-1,-1,-1,-1,-1,-1,-1,-1,-1,-1,-1,-1,-1],"split_conditions":[3.482E-3,1.2998E0,1E0,1E0,-7.1E-3,7.112E-3,7.447E-3,6E0,5.4E-3,9.736E-3,7.3E-3,1.88E-2,6E0,2.0267E0,3.375E-1,3.519E-1,1E1,-3E-3,2.118E-1,2.1594E0,-1.5304E-2,1E0,7.859E-3,2.0123E0,1.8292E0,3.764E-3,1.5918E-2,7.5E-3,-9.446E-3,1.3466E-2,2.264E0,1.4769E0,1.22E-2,2.483E-3,-4.517E-3,3.681E-1,5.25E-1,1E0,1.623E-3,2.7412E0,-1.9123E-2,1.4444E-2,-7.114E-3,-4.633E-3,2.6079E0,1E0,2.338E0,-4.29E-3,-1.21E-2,5.138E-3,-7.046397E-2,1.2455E-2,-1.0104E-2,9E0,3.7221E0,-5.612E-3,2.222E-1,2.0756E0,3.821E-3,-1.0341E-2,5.21E-2,2.0707E-2,3.2226E-2,4.6728764E-2,7.7435605E-2,3.4536567E-2,-7.233828E-4,7.119428E-2,2.3704035E-2,-2.5930455E-2,7.233356E-3,1.4753486E-2,-6.7473943E-3,3.3290368E-2,1.8126648E-2,-7.951417E-3,3.2680295E-2,1.0742994E-2,-1.6490744E-2,-2.1470962E-2,8.90824E-2,-5.744108E-2,-3.462108E-2,-2.7886678E-2,-1.599348E-3,2.3276616E-2,5.298952E-2,1.0644085E-2,3.7470486E-2,5.311948E-3,5.290053E-2,2.8236961E-2,-1.0457908E-2,-1.5127591E-2,-3.8279578E-2,-1.0353438E-2,6.086983E-3,-8.2218973E-4,4.004346E-2,-5.653143E-2,2.4155418E-3,-2.783077E-2,-5.148207E-2,-1.9723881E-2,-8.728492E-3,-2.688378E-2,-4.4888854E-2,-1.326887E-3,-3.8804404E-2,-2.1866923E-2,-3.2440342E-3,3.1385634E-2,-3.7506443E-2,1.4822154E-2,-4.922986E-2,-1.0215121E-2,-3.8927857E-2,-3.486842E-2,-1.1978175E-2,-4.2703606E-2,1.0582636E-2,-3.295148E-2,-4.8654374E-2,-4.690046E-2,-1.8141394E-2],"split_indices":[0,6,5,5,7,0,0,3,7,9,7,7,3,6,8,8,3,7,8,6,12,5,12,13,13,9,9,7,12,12,6,13,7,9,12,8,8,11,12,13,12,9,12,12,13,5,6,12,7,0,0,0,12,3,6,12,8,6,12,12,7,12,9,0,0,0,0,0,0,0,0,0,0,0,0,0,0,0,0,0,0,0,0,0,0,0,0,0,0,0,0,0,0,0,0,0,0,0,0,0,0,0,0,0,0,0,0,0,0,0,0,0,0,0,0,0,0,0,0,0,0,0,0,0,0],"split_type":[0,0,0,0,0,0,0,0,0,0,0,0,0,0,0,0,0,0,0,0,0,0,0,0,0,0,0,0,0,0,0,0,0,0,0,0,0,0,0,0,0,0,0,0,0,0,0,0,0,0,0,0,0,0,0,0,0,0,0,0,0,0,0,0,0,0,0,0,0,0,0,0,0,0,0,0,0,0,0,0,0,0,0,0,0,0,0,0,0,0,0,0,0,0,0,0,0,0,0,0,0,0,0,0,0,0,0,0,0,0,0,0,0,0,0,0,0,0,0,0,0,0,0,0,0],"sum_hessian":[2.4069918E4,1.2879006E4,1.1190911E4,8.901796E3,3.9772107E3,7.5505557E3,3.6403555E3,4.5598105E3,4.3419854E3,1.3280206E3,2.6491902E3,1.1966764E3,6.353879E3,1.3936674E3,2.2466882E3,3.2171116E3,1.3426987E3,3.80384E3,5.38145E2,8.272763E2,5.0074423E2,1.7282437E3,9.209464E2,1.1572545E3,3.9421944E1,5.326803E3,1.0270757E3,7.3230237E2,6.613649E2,5.6405444E2,1.6826337E3,8.932699E2,2.3238418E3,1.156922E3,1.8577664E2,9.8543414E2,2.818406E3,4.7029263E1,4.9111578E2,5.6577264E2,2.6150366E2,3.8588956E2,1.1485469E2,6.9992175E2,1.0283219E3,1.9948201E2,7.214644E2,1.01312756E3,1.441269E2,1.7656307E1,2.1765638E1,2.6492203E2,5.0618813E3,8.950834E2,1.3199228E2,5.877202E2,1.4458217E2,1.9394522E2,4.6741974E2,4.2321375E2,1.4084073E2,8.787444E2,8.038893E2,8.424581E2,5.0811764E1,2.2471057E3,7.6736E1,3.4628082E1,1.122294E3,5.5217087E1,1.3055956E2,2.5842706E2,7.270071E2,1.4639414E3,1.3544646E3,1.8404928E1,2.8624334E1,5.739852E1,4.3371725E2,5.5531323E2,1.0459411E1,3.6354733E1,2.2514894E2,1.8805801E2,1.9783153E2,9.142459E1,2.34301E1,1.6054518E2,5.393766E2,9.6641266E2,6.1909267E1,7.7782394E1,1.2169961E2,5.0787277E2,2.1359167E2,3.1788742E2,6.952402E2,4.1511776E1,1.02615135E2,5.227511E0,1.2428796E1,1.9496774E2,6.995429E1,1.5776166E3,3.4842646E3,7.234518E2,1.7163164E2,9.911047E1,3.28818E1,2.0469936E2,3.8302084E2,1.1323284E1,1.332589E2,6.9670796E0,1.8697813E2,1.7941322E2,2.880065E2,2.3063902E2,1.925747E2,1.3550903E2,5.3316836E0,7.237955E2,1.5494896E2,7.606748E2,4.3214436E1],"tree_param":{"num_deleted":"0","num_feature":"18","num_nodes":"125","size_leaf_vector":"1"}},{"base_weights":[-3.464736E-3,3.8511276E-1,-2.2047879E-1,5.458316E-1,2.2634156E-1,-7.66227E-2,-4.2173818E-1,7.809082E-1,4.549522E-1,-1.6477117E-1,3.1140053E-1,-2.9849917E-1,2.2530336E-2,-2.4329506E-1,-6.321307E-1,7.9240584E-1,-3.167104E-1,5.5517465E-1,3.1622505E-1,-4.2239004E-1,-2.8592339E-2,4.546145E-1,-6.729865E-2,-3.9373496E-1,1.7929737E-1,2.7876747E-1,-2.6584306E-1,-1.8439956E-1,-7.0519567E-1,-5.014931E-1,-7.695742E-1,1.3150036E0,7.636722E-1,3.628051E-2,-4.2109128E-2,5.7592946E-1,-2.773159E-1,3.6556E-1,-3.845151E-1,-1.1490901E-1,-6.406354E-1,-1.0264902E-1,4.3471444E-1,2.4386796E-1,5.3538424E-1,4.349277E-2,-4.3270335E-1,-5.140705E-1,-2.759355E-1,-3.2636303E-1,3.0452007E-1,1.8051413E-1,5.758702E-1,-1.8369251E-1,-4.8625082E-1,-3.840793E-1,3.857374E-3,-8.705938E-1,-5.0891045E-2,3.002267E-1,-5.579212E-1,-4.082603E-1,-8.2563466E-1,7.0286915E-2,2.8397707E-2,4.2917628E-2,3.1261288E-2,3.1819995E-2,-2.106711E-2,3.0204145E-2,4.788326E-4,-1.7354166E-3,-4.8358016E-2,-0E0,2.2262828E-2,2.5192982E-2,-2.2867437E-2,-2.2282293E-2,1.2347851E-2,3.9954223E-3,-3.5472553E-2,2.6407752E-2,-8.444384E-3,3.3203024E-2,-4.654946E-3,2.126356E-2,2.6786046E-3,3.3551496E-2,2.096732E-2,-1.5231135E-2,7.930273E-3,3.0445157E-2,-2.4750378E-2,-1.7478619E-2,-3.155132E-2,-4.2798083E-2,-9.59204E-3,7.652403E-2,-2.4111442E-2,2.3270471E-2,-8.560221E-3,-4.3946947E-3,1.40339555E-2,1.8392554E-2,3.7192814E-2,-1.2836759E-3,-1.5222916E-2,-1.6093973E-2,-3.3181816E-2,-2.235048E-2,4.4284143E-2,1.628801E-2,-1.4895381E-2,-5.658814E-2,-3.0160356E-2,8.5611254E-2,-8.866182E-3,2.8853808E-2,-3.3640884E-2,-2.4244895E-2,-4.051506E-2,-2.2969974E-2,5.0319787E-2,-4.5644227E-2,-3.336647E-2],"categories":[],"categories_nodes":[],"categories_segments":[],"categories_sizes":[],"default_left":[0,0,0,0,0,0,0,0,0,0,0,0,0,0,0,0,0,0,0,0,0,0,0,0,0,0,0,0,0,0,0,0,0,0,0,0,0,0,0,0,0,0,0,0,0,0,0,0,0,0,0,0,0,0,0,0,0,0,0,0,0,0,0,0,0,0,0,0,0,0,0,0,0,0,0,0,0,0,0,0,0,0,0,0,0,0,0,0,0,0,0,0,0,0,0,0,0,0,0,0,0,0,0,0,0,0,0,0,0,0,0,0,0,0,0,0,0,0,0,0,0,0,0,0,0],"id":11,"left_children":[1,3,5,7,9,11,13,15,17,19,21,23,25,27,29,31,33,35,37,39,41,43,45,47,49,51,53,55,57,59,61,63,65,67,-1,69,71,73,75,77,79,81,83,85,87,89,91,93,95,97,99,101,103,105,107,109,111,113,115,117,119,121,123,-1,-1,-1,-1,-1,-1,-1,-1,-1,-1,-1,-1,-1,-1,-1,-1,-1,-1,-1,-1,-1,-1,-1,-1,-1,-1,-1,-1,-1,-1,-1,-1,-1,-1,-1,-1,-1,-1,-1,-1,-1,-1,-1,-1,-1,-1,-1,-1,-1,-1,-1,-1,-1,-1,-1,-1,-1,-1,-1,-1,-1,-1],"loss_changes":[2.0202449E3,2.1886804E2,4.4498816E2,9.064392E1,1.4380563E2,1.972886E2,2.403075E2,1.5285034E1,4.2543884E1,2.703527E1,1.9257376E2,1.2612187E2,4.580233E2,9.41445E1,5.2266968E1,1.644043E1,2.5103424E0,3.1043701E1,4.4876556E1,1.7749847E1,1.739091E1,4.3636536E1,3.9515392E1,3.2522522E1,2.9276615E1,9.563483E1,5.2646988E1,1.15745926E2,4.2256485E1,6.851941E1,2.850885E1,3.0509567E0,1.39552E1,2.6465013E0,0E0,2.7720459E1,7.229286E0,3.527382E1,5.7560387E0,1.3550533E1,7.834587E0,1.834266E1,8.569813E0,2.464066E1,2.890094E1,3.0031641E1,1.5025665E1,2.1634064E1,5.67909E1,2.7199545E1,2.8430939E1,6.64041E1,2.8094849E1,4.0537186E1,2.2747604E1,1.1972957E2,1.540712E2,2.0966675E1,1.8033712E1,2.7275797E1,2.5490509E1,1.4465473E1,1.6316833E1,0E0,0E0,0E0,0E0,0E0,0E0,0E0,0E0,0E0,0E0,0E0,0E0,0E0,0E0,0E0,0E0,0E0,0E0,0E0,0E0,0E0,0E0,0E0,0E0,0E0,0E0,0E0,0E0,0E0,0E0,0E0,0E0,0E0,0E0,0E0,0E0,0E0,0E0,0E0,0E0,0E0,0E0,0E0,0E0,0E0,0E0,0E0,0E0,0E0,0E0,0E0,0E0,0E0,0E0,0E0,0E0,0E0,0E0,0E0,0E0,0E0,0E0],"parents":[2147483647,0,0,1,1,2,2,3,3,4,4,5,5,6,6,7,7,8,8,9,9,10,10,11,11,12,12,13,13,14,14,15,15,16,16,17,17,18,18,19,19,20,20,21,21,22,22,23,23,24,24,25,25,26,26,27,27,28,28,29,29,30,30,31,31,32,32,33,33,35,35,36,36,37,37,38,38,39,39,40,40,41,41,42,42,43,43,44,44,45,45,46,46,47,47,48,48,49,49,50,50,51,51,52,52,53,53,54,54,55,55,56,56,57,57,58,58,59,59,60,60,61,61,62,62],"right_children":[2,4,6,8,10,12,14,16,18,20,22,24,26,28,30,32,34,36,38,40,42,44,46,48,50,52,54,56,58,60,62,64,66,68,-1,70,72,74,76,78,80,82,84,86,88,90,92,94,96,98,100,102,104,106,108,110,112,114,116,118,120,122,124,-1,-1,-1,-1,-1,-1,-1,-1,-1,-1,-1,-1,-1,-1,-1,-1,-1,-1,-1,-1,-1,-1,-1,-1,-1,-1,-1,-1,-1,-1,-1,-1,-1,-1,-1,-1,-1,-1,-1,-1,-1,-1,-1,-1,-1,-1,-1,-1,-1,-1,-1,-1,-1,-1,-1,-1,-1,-1,-1,-1,-1,-1],"split_conditions":[1.0788E0,7.74E-1,1.7368E0,3.519E-1,-5.116E-3,-5.736E-3,1E0,9.45E1,1E0,2.036E0,4.717E-3,1.1383E-2,4.822E-3,2.61E-2,2.1938E0,1.764E-3,4E0,8.862E-1,6.9E-3,5.065E-1,-2E-3,-1.836E-3,1.16E-2,-9.892E-3,1E0,5.677E-3,1.7E1,-9.446E-3,1.9147E-2,2.239E-3,2.414E-1,1.3E-3,1E0,6.231E-1,-4.2109128E-2,9.01E1,9.175E-3,-3E-3,4.215E-1,-7.435E-3,7.797E-1,2.04E-1,7.422E-1,5.455E-1,1E0,5.383E-3,1.439E-1,7.75E1,4.053E-3,-4.47E-2,1E0,-2.942E-3,-1.92E-3,3E0,1.19E-2,2.2506E-2,4.822E-3,2.43E0,1E0,8.95E1,1.1879E-2,1.9388E-2,1.0427E-2,7.0286915E-2,2.8397707E-2,4.2917628E-2,3.1261288E-2,3.1819995E-2,-2.106711E-2,3.0204145E-2,4.788326E-4,-1.7354166E-3,-4.8358016E-2,-0E0,2.2262828E-2,2.5192982E-2,-2.2867437E-2,-2.2282293E-2,1.2347851E-2,3.9954223E-3,-3.5472553E-2,2.6407752E-2,-8.444384E-3,3.3203024E-2,-4.654946E-3,2.126356E-2,2.6786046E-3,3.3551496E-2,2.096732E-2,-1.5231135E-2,7.930273E-3,3.0445157E-2,-2.4750378E-2,-1.7478619E-2,-3.155132E-2,-4.2798083E-2,-9.59204E-3,7.652403E-2,-2.4111442E-2,2.3270471E-2,-8.560221E-3,-4.3946947E-3,1.40339555E-2,1.8392554E-2,3.7192814E-2,-1.2836759E-3,-1.5222916E-2,-1.6093973E-2,-3.3181816E-2,-2.235048E-2,4.4284143E-2,1.628801E-2,-1.4895381E-2,-5.658814E-2,-3.0160356E-2,8.5611254E-2,-8.866182E-3,2.8853808E-2,-3.3640884E-2,-2.4244895E-2,-4.051506E-2,-2.2969974E-2,5.0319787E-2,-4.5644227E-2,-3.336647E-2],"split_indices":[6,6,14,8,12,12,5,2,5,17,12,9,12,7,14,9,3,1,7,8,7,12,7,12,16,9,15,12,9,10,8,7,5,1,0,2,12,7,6,12,14,8,1,8,5,10,8,2,9,7,5,12,12,16,7,10,12,17,15,2,12,10,9,0,0,0,0,0,0,0,0,0,0,0,0,0,0,0,0,0,0,0,0,0,0,0,0,0,0,0,0,0,0,0,0,0,0,0,0,0,0,0,0,0,0,0,0,0,0,0,0,0,0,0,0,0,0,0,0,0,0,0,0,0,0],"split_type":[0,0,0,0,0,0,0,0,0,0,0,0,0,0,0,0,0,0,0,0,0,0,0,0,0,0,0,0,0,0,0,0,0,0,0,0,0,0,0,0,0,0,0,0,0,0,0,0,0,0,0,0,0,0,0,0,0,0,0,0,0,0,0,0,0,0,0,0,0,0,0,0,0,0,0,0,0,0,0,0,0,0,0,0,0,0,0,0,0,0,0,0,0,0,0,0,0,0,0,0,0,0,0,0,0,0,0,0,0,0,0,0,0,0,0,0,0,0,0,0,0,0,0,0,0],"sum_hessian":[2.3955523E4,8.584031E3,1.5371491E4,4.2643267E3,4.319705E3,8.965216E3,6.4062754E3,1.1865087E3,3.0778179E3,7.712553E2,3.5484497E3,2.7686836E3,6.1965327E3,3.4677534E3,2.9385222E3,1.174574E3,1.1934592E1,1.7847299E3,1.293088E3,2.6572635E2,5.0552896E2,2.5747944E3,9.7365515E2,2.30886E3,4.5982355E2,3.2812893E3,2.9152432E3,3.077027E3,3.9072638E2,1.5093191E3,1.4292031E3,5.8700756E1,1.1158733E3,7.5819774E0,4.3526144E0,1.741735E3,4.299484E1,1.2086176E3,8.447055E1,1.1113516E2,1.5459119E2,4.367168E2,6.881216E1,7.148493E2,1.8599452E3,7.475913E2,2.2606384E2,1.1400518E3,1.1688082E3,9.079211E1,3.6903146E2,2.4672888E3,8.140004E2,2.1253635E3,7.8987976E2,1.4929648E3,1.5840623E3,3.1150046E2,7.922591E1,9.8845665E1,1.4104734E3,1.9331816E2,1.235885E3,5.143769E1,7.263063E0,6.591638E2,4.567094E2,3.2057986E0,4.3761787E0,1.6590216E3,8.271337E1,3.2692623E1,1.0302217E1,2.1634341E2,9.922741E2,5.8481297E0,7.862242E1,5.8088497E1,5.304667E1,1.3336384E1,1.412548E2,4.069423E1,3.9602255E2,4.7920856E1,2.0891298E1,3.6507455E2,3.4977472E2,8.5491943E2,1.00502576E3,1.8515224E2,5.624391E2,1.21732025E1,2.1389064E2,4.7575198E2,6.642998E2,1.4668823E2,1.02212E3,6.298362E0,8.4493744E1,2.759406E2,9.3090836E1,6.70283E2,1.7970059E3,3.6535806E2,4.4864236E2,9.2156274E2,1.2038007E3,4.1173267E2,3.781471E2,1.4231588E3,6.980602E1,7.665788E2,8.174834E2,1.5575784E2,1.5574261E2,4.40896E0,7.481695E1,7.734832E1,2.1497347E1,1.096524E3,3.139493E2,1.8729352E2,6.024637E0,7.932742E2,4.426108E2],"tree_param":{"num_deleted":"0","num_feature":"18","num_nodes":"125","size_leaf_vector":"1"}},{"base_weights":[-2.3004592E-3,2.9714006E-1,-3.4905437E-1,5.550758E-1,1.0381947E-1,-2.848164E-1,-5.693947E-1,4.8765174E-1,8.4950113E-1,2.1403669E-1,-2.212827E-1,-4.6300966E-1,-1.269683E-1,-8.4637624E-1,-4.6672302E-1,6.4239526E-1,3.8306823E-1,9.946144E-1,6.287159E-1,4.313062E-1,5.820653E-2,3.9735025E-1,-2.6749027E-1,-5.2637625E-1,2.4229856E-1,5.19672E-2,-3.1871045E-1,-1.0540746E0,-7.246918E-1,-2.3059078E-1,-5.790514E-1,5.639093E-1,9.073618E-1,1.0051538E0,3.6260095E-1,1.1779896E0,8.502655E-1,7.447745E-1,2.0792012E-1,3.5366812E-1,1.0306407E0,-1.9335064E-1,1.4453171E-1,7.723233E-1,-2.8336737E-1,-1.8204373E-1,-5.0629324E-1,-7.578059E-1,-4.293489E-1,5.814836E-2,8.664661E-1,-1.6275395E-1,1.9993833E-1,-4.4143492E-1,6.1525296E-2,-5.7751644E-1,-1.1452259E0,-5.4320794E-1,-8.3204854E-1,1.24838784E-1,-4.8145866E-1,-4.3088964E-1,-7.9367787E-1,2.141346E-2,3.2230433E-2,5.9279174E-2,3.7174847E-2,5.396366E-2,-3.6592998E-2,2.335729E-2,1.2611704E-2,6.0838796E-2,3.783438E-2,3.4986813E-2,5.34526E-2,9.022116E-3,4.2017855E-2,3.2260396E-2,-1.7639867E-3,8.212899E-3,2.205464E-2,5.7246204E-2,2.4139665E-2,-2.0147873E-2,1.1480659E-3,1.5714448E-2,-5.606218E-3,4.3077912E-2,-4.2321354E-2,1.6198177E-2,-5.1675152E-2,-1.1942276E-2,3.500299E-2,-3.0185923E-2,3.7989242E-3,-4.2607438E-2,-2.3104971E-2,-2.7774384E-2,1.0642367E-2,-3.1057207E-2,9.9891415E-3,1.8052092E-2,6.572142E-2,-1.5257785E-2,4.046479E-3,6.7170104E-4,2.192918E-2,-3.2678016E-2,-1.809956E-2,1.8809013E-2,-4.0571815E-3,-6.795473E-3,-5.1954824E-2,-0E0,-5.8706444E-2,4.7180302E-2,-2.9221302E-2,-4.7971748E-2,-2.7590383E-2,-1.2619497E-2,2.1644497E-2,7.6620555E-3,-2.8960964E-2,-2.3104599E-2,5.6108344E-2,-4.5717496E-2,-2.484974E-2],"categories":[],"categories_nodes":[],"categories_segments":[],"categories_sizes":[],"default_left":[0,0,0,0,0,0,0,0,0,0,0,0,0,0,0,0,0,0,0,0,0,0,0,0,0,0,0,0,0,0,0,0,0,0,0,0,0,0,0,0,0,0,0,0,0,0,0,0,0,0,0,0,0,0,0,0,0,0,0,0,0,0,0,0,0,0,0,0,0,0,0,0,0,0,0,0,0,0,0,0,0,0,0,0,0,0,0,0,0,0,0,0,0,0,0,0,0,0,0,0,0,0,0,0,0,0,0,0,0,0,0,0,0,0,0,0,0,0,0,0,0,0,0,0,0,0,0],"id":12,"left_children":[1,3,5,7,9,11,13,15,17,19,21,23,25,27,29,31,33,35,37,39,41,43,45,47,49,51,53,55,57,59,61,63,65,67,69,71,73,75,77,79,81,83,85,87,89,91,93,95,97,99,101,103,105,107,109,111,113,115,117,119,121,123,125,-1,-1,-1,-1,-1,-1,-1,-1,-1,-1,-1,-1,-1,-1,-1,-1,-1,-1,-1,-1,-1,-1,-1,-1,-1,-1,-1,-1,-1,-1,-1,-1,-1,-1,-1,-1,-1,-1,-1,-1,-1,-1,-1,-1,-1,-1,-1,-1,-1,-1,-1,-1,-1,-1,-1,-1,-1,-1,-1,-1,-1,-1,-1,-1],"loss_changes":[2.4884277E3,6.411376E2,1.569447E2,1.0881116E2,2.6349084E2,2.4181085E2,7.072662E1,7.2235596E1,3.204767E1,1.858518E2,5.3312454E1,1.8069458E2,1.5658444E2,1.61456E1,4.8336853E1,3.6917725E1,3.3610596E1,1.5112061E1,1.9745926E1,1.0620093E2,6.949846E1,3.3360214E1,3.5202812E1,8.27959E1,3.819649E1,7.504228E1,1.0286195E2,9.907318E0,7.785034E0,5.2882256E1,3.8949066E1,1.490741E1,1.7662537E1,1.1718994E1,2.9758057E1,3.2710876E0,1.0562637E1,1.7026428E1,9.66451E0,3.3512634E1,1.5708282E1,3.711402E1,1.0387188E2,1.2858768E1,2.1675196E1,6.416864E1,2.5957474E1,2.9979431E1,2.119447E2,2.4977835E1,1.651875E1,3.3478073E1,6.218575E1,2.7732422E1,2.422049E1,8.280918E0,6.903137E0,1.0503899E1,8.881088E0,2.8665413E1,2.168834E1,3.6104767E1,1.7474152E1,0E0,0E0,0E0,0E0,0E0,0E0,0E0,0E0,0E0,0E0,0E0,0E0,0E0,0E0,0E0,0E0,0E0,0E0,0E0,0E0,0E0,0E0,0E0,0E0,0E0,0E0,0E0,0E0,0E0,0E0,0E0,0E0,0E0,0E0,0E0,0E0,0E0,0E0,0E0,0E0,0E0,0E0,0E0,0E0,0E0,0E0,0E0,0E0,0E0,0E0,0E0,0E0,0E0,0E0,0E0,0E0,0E0,0E0,0E0,0E0,0E0,0E0,0E0,0E0],"parents":[2147483647,0,0,1,1,2,2,3,3,4,4,5,5,6,6,7,7,8,8,9,9,10,10,11,11,12,12,13,13,14,14,15,15,16,16,17,17,18,18,19,19,20,20,21,21,22,22,23,23,24,24,25,25,26,26,27,27,28,28,29,29,30,30,31,31,32,32,33,33,34,34,35,35,36,36,37,37,38,38,39,39,40,40,41,41,42,42,43,43,44,44,45,45,46,46,47,47,48,48,49,49,50,50,51,51,52,52,53,53,54,54,55,55,56,56,57,57,58,58,59,59,60,60,61,61,62,62],"right_children":[2,4,6,8,10,12,14,16,18,20,22,24,26,28,30,32,34,36,38,40,42,44,46,48,50,52,54,56,58,60,62,64,66,68,70,72,74,76,78,80,82,84,86,88,90,92,94,96,98,100,102,104,106,108,110,112,114,116,118,120,122,124,126,-1,-1,-1,-1,-1,-1,-1,-1,-1,-1,-1,-1,-1,-1,-1,-1,-1,-1,-1,-1,-1,-1,-1,-1,-1,-1,-1,-1,-1,-1,-1,-1,-1,-1,-1,-1,-1,-1,-1,-1,-1,-1,-1,-1,-1,-1,-1,-1,-1,-1,-1,-1,-1,-1,-1,-1,-1,-1,-1,-1,-1,-1,-1,-1],"split_conditions":[3.482E-3,9.066E-1,1.1306E-2,8.007E-1,1.8026E0,-7.114E-3,5.64E-3,5.943E-1,5.51E-1,4.694E-1,2.172E-3,1.5782E-2,3.821E-3,1.392E0,2E0,5.282E-1,1.974E-3,7.74E-1,3.34E-3,1.6853E0,-5.237E-3,2.783E-3,2.6518E0,-2.1154E-2,2.5072E-2,-3.944E-3,6.255E-3,1.8895E0,1E1,1.2E1,2.4027E-2,3.37E-1,4E-1,2.91E-3,5.714E-1,5E0,1.0458E0,-4.633E-3,7.742E-1,-2.942E-3,1.6692E0,7.024E-3,3.719E-3,2.2E1,2.5979E0,2.8253E0,3.758E0,2E1,1.0427E-2,-1.47824E-1,5.3856E-2,1.2615E0,4.394E-3,3.439E-3,2E0,5.113E-3,9E-1,7.955E-1,5E0,5E0,1.3823E-2,2.6787E0,1.3614E-2,2.141346E-2,3.2230433E-2,5.9279174E-2,3.7174847E-2,5.396366E-2,-3.6592998E-2,2.335729E-2,1.2611704E-2,6.0838796E-2,3.783438E-2,3.4986813E-2,5.34526E-2,9.022116E-3,4.2017855E-2,3.2260396E-2,-1.7639867E-3,8.212899E-3,2.205464E-2,5.7246204E-2,2.4139665E-2,-2.0147873E-2,1.1480659E-3,1.5714448E-2,-5.606218E-3,4.3077912E-2,-4.2321354E-2,1.6198177E-2,-5.1675152E-2,-1.1942276E-2,3.500299E-2,-3.0185923E-2,3.7989242E-3,-4.2607438E-2,-2.3104971E-2,-2.7774384E-2,1.0642367E-2,-3.1057207E-2,9.9891415E-3,1.8052092E-2,6.572142E-2,-1.5257785E-2,4.046479E-3,6.7170104E-4,2.192918E-2,-3.2678016E-2,-1.809956E-2,1.8809013E-2,-4.0571815E-3,-6.795473E-3,-5.1954824E-2,-0E0,-5.8706444E-2,4.7180302E-2,-2.9221302E-2,-4.7971748E-2,-2.7590383E-2,-1.2619497E-2,2.1644497E-2,7.6620555E-3,-2.8960964E-2,-2.3104599E-2,5.6108344E-2,-4.5717496E-2,-2.484974E-2],"split_indices":[0,6,12,13,6,12,10,6,8,8,10,10,12,17,16,13,10,6,12,13,12,12,6,12,10,12,10,6,15,15,12,13,8,0,8,4,13,12,14,12,6,9,12,